{"learner":{"attributes":{"scikit_learn":"{\"_estimator_type\": \"regressor\"}"},"feature_names":["list_price","original_price","bedrooms","bathrooms","sqft","year_built","year","month","crime_rate","sentiment_score"],"feature_types":["float","float","int","int","int","int","float","float","float","float"],"gradient_booster":{"model":{"gbtree_model_param":{"num_parallel_tree":"1","num_trees":"200"},"iteration_indptr":[0,1,2,3,4,5,6,7,8,9,10,11,12,13,14,15,16,17,18,19,20,21,22,23,24,25,26,27,28,29,30,31,32,33,34,35,36,37,38,39,40,41,42,43,44,45,46,47,48,49,50,51,52,53,54,55,56,57,58,59,60,61,62,63,64,65,66,67,68,69,70,71,72,73,74,75,76,77,78,79,80,81,82,83,84,85,86,87,88,89,90,91,92,93,94,95,96,97,98,99,100,101,102,103,104,105,106,107,108,109,110,111,112,113,114,115,116,117,118,119,120,121,122,123,124,125,126,127,128,129,130,131,132,133,134,135,136,137,138,139,140,141,142,143,144,145,146,147,148,149,150,151,152,153,154,155,156,157,158,159,160,161,162,163,164,165,166,167,168,169,170,171,172,173,174,175,176,177,178,179,180,181,182,183,184,185,186,187,188,189,190,191,192,193,194,195,196,197,198,199,200],"tree_info":[0,0,0,0,0,0,0,0,0,0,0,0,0,0,0,0,0,0,0,0,0,0,0,0,0,0,0,0,0,0,0,0,0,0,0,0,0,0,0,0,0,0,0,0,0,0,0,0,0,0,0,0,0,0,0,0,0,0,0,0,0,0,0,0,0,0,0,0,0,0,0,0,0,0,0,0,0,0,0,0,0,0,0,0,0,0,0,0,0,0,0,0,0,0,0,0,0,0,0,0,0,0,0,0,0,0,0,0,0,0,0,0,0,0,0,0,0,0,0,0,0,0,0,0,0,0,0,0,0,0,0,0,0,0,0,0,0,0,0,0,0,0,0,0,0,0,0,0,0,0,0,0,0,0,0,0,0,0,0,0,0,0,0,0,0,0,0,0,0,0,0,0,0,0,0,0,0,0,0,0,0,0,0,0,0,0,0,0,0,0,0,0,0,0,0,0,0,0,0,0],"trees":[{"base_weights":[5.9376084E-3,-1.2195999E5,1.7029112E6,-2.777449E5,2.2368108E5,1.4381739E6,5.7971415E6,-4.0545334E5,-1.6699353E5,9.659735E4,4.7433228E5,1.1479538E6,2.29723E6,3.2413303E5,6.964908E6,-4.8927984E5,-3.5203647E5,-2.3301236E5,-1.0921089E5,3.4274242E4,1.8552117E5,3.718051E5,6.0513725E5,9.813162E5,1.477621E6,2.0758425E6,2.007266E5,3.2322125E5,7.531398E6,-3.8637734E4,-3.2005285E4,-2.6572092E4,-2.2187846E4,-1.8310031E4,-1.423121E4,-9.819998E3,-4.7282E3,5.8407385E2,5.481856E3,1.0121154E4,1.6475262E4,2.3394443E4,2.9465332E4,3.81021E4,4.9645473E4,6.249866E4,7.873859E4,9.462541E4,1.11798305E5,1.2614829E5,1.5458455E5,1.2607445E5,5.3865825E5],"categories":[],"categories_nodes":[],"categories_segments":[],"categories_sizes":[],"default_left":[0,0,0,0,0,0,0,0,0,0,0,0,0,0,0,0,0,0,0,0,0,0,0,0,0,0,0,0,0,0,0,0,0,0,0,0,0,0,0,0,0,0,0,0,0,0,0,0,0,0,0,0,0],"id":0,"left_children":[1,3,5,7,9,11,13,15,17,19,21,23,25,-1,27,29,31,33,35,37,39,41,43,45,47,49,-1,-1,51,-1,-1,-1,-1,-1,-1,-1,-1,-1,-1,-1,-1,-1,-1,-1,-1,-1,-1,-1,-1,-1,-1,-1,-1],"loss_changes":[3.5985934E15,8.706927E14,1.2468142E15,1.5758007E14,1.5998715E14,2.6886737E14,6.311696E13,2.3004583E13,2.2752388E13,1.8476245E13,2.2439694E13,4.3376955E13,2.864166E13,0E0,9.108149E12,3.7914495E12,2.9390327E12,2.3106924E12,4.115556E12,2.2397924E12,2.769067E12,1.6141192E12,4.3048994E12,5.9163175E12,1.9309233E12,3.3106816E12,0E0,0E0,9.594689E12,0E0,0E0,0E0,0E0,0E0,0E0,0E0,0E0,0E0,0E0,0E0,0E0,0E0,0E0,0E0,0E0,0E0,0E0,0E0,0E0,0E0,0E0,0E0,0E0],"parents":[2147483647,0,0,1,1,2,2,3,3,4,4,5,5,6,6,7,7,8,8,9,9,10,10,11,11,12,12,14,14,15,15,16,16,17,17,18,18,19,19,20,20,21,21,22,22,23,23,24,24,25,25,28,28],"right_children":[2,4,6,8,10,12,14,16,18,20,22,24,26,-1,28,30,32,34,36,38,40,42,44,46,48,50,-1,-1,52,-1,-1,-1,-1,-1,-1,-1,-1,-1,-1,-1,-1,-1,-1,-1,-1,-1,-1,-1,-1,-1,-1,-1,-1],"split_conditions":[1.595E6,7.299E5,4.498E6,4.75E5,1.029E6,2.599E6,7.661E3,3.4E5,5.89E5,8.75E5,1.259E6,2.05E6,3.495E6,3.2413303E5,6E0,2.649E5,4.199E5,5.29E5,6.599E5,7.99999E5,9.499E5,1.169E6,1.425E6,1.849E6,2.3E6,2.849E6,2.007266E5,3.2322125E5,4.75E6,-3.8637734E4,-3.2005285E4,-2.6572092E4,-2.2187846E4,-1.8310031E4,-1.423121E4,-9.819998E3,-4.7282E3,5.8407385E2,5.481856E3,1.0121154E4,1.6475262E4,2.3394443E4,2.9465332E4,3.81021E4,4.9645473E4,6.249866E4,7.873859E4,9.462541E4,1.11798305E5,1.2614829E5,1.5458455E5,1.2607445E5,5.3865825E5],"split_indices":[0,0,0,0,0,0,4,0,0,0,0,0,0,0,2,0,0,0,0,0,0,0,0,0,0,0,0,0,1,0,0,0,0,0,0,0,0,0,0,0,0,0,0,0,0,0,0,0,0,0,0,0,0],"split_type":[0,0,0,0,0,0,0,0,0,0,0,0,0,0,0,0,0,0,0,0,0,0,0,0,0,0,0,0,0,0,0,0,0,0,0,0,0,0,0,0,0,0,0,0,0,0,0,0,0,0,0,0,0],"sum_hessian":[1.7325E4,1.6168E4,1.157E3,1.1145E4,5.023E3,1.088E3,6.9E1,5.175E3,5.97E3,3.334E3,1.689E3,8.15E2,2.73E2,3.7E1,3.2E1,2.011E3,3.164E3,2.785E3,3.185E3,1.961E3,1.373E3,9.49E2,7.4E2,5.44E2,2.71E2,2E2,7.3E1,8E0,2.4E1,6.75E2,1.336E3,1.766E3,1.398E3,1.416E3,1.369E3,1.823E3,1.362E3,1.235E3,7.26E2,7.56E2,6.17E2,5.42E2,4.07E2,4.71E2,2.69E2,3.41E2,2.03E2,1.38E2,1.33E2,7E1,1.3E2,1E0,2.3E1],"tree_param":{"num_deleted":"0","num_feature":"10","num_nodes":"53","size_leaf_vector":"1"}},{"base_weights":[1.2397874E2,-1.07269805E5,1.676826E6,-2.4670225E5,2.4888147E5,1.4068004E6,5.410086E6,-3.6557016E5,-1.3280389E5,1.17339164E5,4.753959E5,1.1189185E6,2.138181E6,3.0204084E5,6.5073025E6,-4.4510428E5,-3.094324E5,-1.8927773E5,-6.777057E4,5.7843535E4,1.9312156E5,3.8589225E5,6.3841125E5,9.543638E5,1.3749465E6,1.9319302E6,1.868656E5,1.7308228E5,6.6878445E6,-3.5937094E4,-2.9229229E4,-2.3487074E4,-1.9147953E4,-1.5212551E4,-1.0959037E4,-6.9168745E3,-2.5121587E3,2.3569463E3,6.3642344E3,1.043792E4,1.6090609E4,2.405723E4,3.2103035E4,3.801058E4,4.823272E4,6.07161E4,7.32539E4,8.804928E4,1.0403082E5,1.1744228E5,1.4384623E5,1.2166184E5,4.7564328E5],"categories":[],"categories_nodes":[],"categories_segments":[],"categories_sizes":[],"default_left":[0,0,0,0,0,0,0,0,0,0,0,0,0,0,0,0,0,0,0,0,0,0,0,0,0,0,0,0,0,0,0,0,0,0,0,0,0,0,0,0,0,0,0,0,0,0,0,0,0,0,0,0,0],"id":1,"left_children":[1,3,5,7,9,11,13,15,17,19,21,23,25,-1,27,29,31,33,35,37,39,41,43,45,47,49,-1,-1,51,-1,-1,-1,-1,-1,-1,-1,-1,-1,-1,-1,-1,-1,-1,-1,-1,-1,-1,-1,-1,-1,-1,-1,-1],"loss_changes":[3.1200272E15,8.0870926E14,1.0438121E15,1.5839672E14,1.3647057E14,2.0268447E14,5.6040196E13,2.5428085E13,2.194246E13,1.3064124E13,2.4309414E13,2.8221358E13,2.4869337E13,0E0,7.5018315E12,4.2374214E12,3.0552988E12,2.901435E12,2.7478102E12,1.2969192E12,2.027472E12,3.1857752E12,2.4997045E12,2.538158E12,1.6727891E12,2.8372957E12,0E0,0E0,4.6180294E12,0E0,0E0,0E0,0E0,0E0,0E0,0E0,0E0,0E0,0E0,0E0,0E0,0E0,0E0,0E0,0E0,0E0,0E0,0E0,0E0,0E0,0E0,0E0,0E0],"parents":[2147483647,0,0,1,1,2,2,3,3,4,4,5,5,6,6,7,7,8,8,9,9,10,10,11,11,12,12,14,14,15,15,16,16,17,17,18,18,19,19,20,20,21,21,22,22,23,23,24,24,25,25,28,28],"right_children":[2,4,6,8,10,12,14,16,18,20,22,24,26,-1,28,30,32,34,36,38,40,42,44,46,48,50,-1,-1,52,-1,-1,-1,-1,-1,-1,-1,-1,-1,-1,-1,-1,-1,-1,-1,-1,-1,-1,-1,-1,-1,-1,-1,-1],"split_conditions":[1.65E6,7.6E5,4.498E6,4.99E5,1.075E6,2.599E6,7.661E3,3.59E5,6.249E5,8.98E5,1.349E6,2.05E6,3.495E6,3.0204084E5,4E0,2.649E5,4.39E5,5.65E5,6.899E5,8.39E5,9.5E5,1.209E6,1.425E6,1.849E6,2.3E6,2.849E6,1.868656E5,1.7308228E5,4.75E6,-3.5937094E4,-2.9229229E4,-2.3487074E4,-1.9147953E4,-1.5212551E4,-1.0959037E4,-6.9168745E3,-2.5121587E3,2.3569463E3,6.3642344E3,1.043792E4,1.6090609E4,2.405723E4,3.2103035E4,3.801058E4,4.823272E4,6.07161E4,7.32539E4,8.804928E4,1.0403082E5,1.1744228E5,1.4384623E5,1.2166184E5,4.7564328E5],"split_indices":[0,0,0,0,0,0,4,0,0,0,0,0,0,0,2,0,0,0,0,0,0,0,0,0,0,0,0,0,1,0,0,0,0,0,0,0,0,0,0,0,0,0,0,0,0,0,0,0,0,0,0,0,0],"split_type":[0,0,0,0,0,0,0,0,0,0,0,0,0,0,0,0,0,0,0,0,0,0,0,0,0,0,0,0,0,0,0,0,0,0,0,0,0,0,0,0,0,0,0,0,0,0,0,0,0,0,0,0,0],"sum_hessian":[1.7325E4,1.6283E4,1.042E3,1.1702E4,4.581E3,9.73E2,6.9E1,5.725E3,5.977E3,2.899E3,1.682E3,7E2,2.73E2,3.7E1,3.2E1,2.366E3,3.359E3,3.198E3,2.779E3,1.625E3,1.274E3,1.088E3,5.94E2,4.29E2,2.71E2,2E2,7.3E1,2E0,3E1,6.75E2,1.691E3,1.94E3,1.419E3,1.719E3,1.479E3,1.407E3,1.372E3,9.4E2,6.85E2,5.82E2,6.92E2,6.92E2,3.96E2,2.1E2,3.84E2,2.26E2,2.03E2,1.38E2,1.33E2,7E1,1.3E2,1E0,2.9E1],"tree_param":{"num_deleted":"0","num_feature":"10","num_nodes":"53","size_leaf_vector":"1"}},{"base_weights":[2.2386313E2,-1.05514914E5,1.4766401E6,-2.3893419E5,1.9674739E5,1.2458036E6,5.0467005E6,-3.4775903E5,-1.4029303E5,9.2072055E4,4.2259516E5,9.943391E5,1.990144E6,2.8145438E5,6.0751365E6,-4.139745E5,-2.9481675E5,-1.8522302E5,-7.720541E4,3.914898E4,1.7962384E5,3.455569E5,5.4301656E5,8.5024256E5,1.2794064E6,1.7979951E6,1.7396178E5,2.7822062E5,6.5883315E6,-3.2674426E4,-2.6784682E4,-2.237862E4,-1.8905225E4,-1.5407595E4,-1.1088896E4,-7.199318E3,-3.752682E3,7.7224384E2,5.4820693E3,9.708518E3,1.4965891E4,2.2375652E4,2.8804895E4,3.40926E4,4.281937E4,5.4192676E4,6.815127E4,8.193018E4,9.680301E4,1.093371E5,1.3385388E5,1.1740369E5,4.7061553E5],"categories":[],"categories_nodes":[],"categories_segments":[],"categories_sizes":[],"default_left":[0,0,0,0,0,0,0,0,0,0,0,0,0,0,0,0,0,0,0,0,0,0,0,0,0,0,0,0,0,0,0,0,0,0,0,0,0,0,0,0,0,0,0,0,0,0,0,0,0,0,0,0,0],"id":2,"left_children":[1,3,5,7,9,11,13,15,17,19,21,23,25,-1,27,29,31,33,35,37,39,41,43,45,47,49,-1,-1,51,-1,-1,-1,-1,-1,-1,-1,-1,-1,-1,-1,-1,-1,-1,-1,-1,-1,-1,-1,-1,-1,-1,-1,-1],"loss_changes":[2.7049946E15,6.521042E14,9.480206E14,1.2037203E14,1.1702977E14,2.0185474E14,4.9429973E13,1.8573318E13,1.6669724E13,1.5677398E13,1.4358764E13,3.243123E13,2.1594089E13,0E0,9.387993E12,3.7379302E12,1.7399483E12,3.1797186E12,1.4768333E12,2.3238447E12,1.7538063E12,1.506636E12,2.0476257E12,4.3594254E12,1.4491153E12,2.4314213E12,0E0,0E0,5.26818E12,0E0,0E0,0E0,0E0,0E0,0E0,0E0,0E0,0E0,0E0,0E0,0E0,0E0,0E0,0E0,0E0,0E0,0E0,0E0,0E0,0E0,0E0,0E0,0E0],"parents":[2147483647,0,0,1,1,2,2,3,3,4,4,5,5,6,6,7,7,8,8,9,9,10,10,11,11,12,12,14,14,15,15,16,16,17,17,18,18,19,19,20,20,21,21,22,22,23,23,24,24,25,25,28,28],"right_children":[2,4,6,8,10,12,14,16,18,20,22,24,26,-1,28,30,32,34,36,38,40,42,44,46,48,50,-1,-1,52,-1,-1,-1,-1,-1,-1,-1,-1,-1,-1,-1,-1,-1,-1,-1,-1,-1,-1,-1,-1,-1,-1,-1,-1],"split_conditions":[1.595E6,7.35E5,4.498E6,4.799E5,1.075E6,2.599E6,7.661E3,3.59E5,6.15E5,8.98E5,1.299E6,2.05E6,3.495E6,2.8145438E5,6E0,2.79E5,4.2E5,5.399E5,6.7E5,8.1E5,9.5E5,1.209E6,1.425E6,1.849E6,2.3E6,2.849E6,1.7396178E5,2.7822062E5,4.75E6,-3.2674426E4,-2.6784682E4,-2.237862E4,-1.8905225E4,-1.5407595E4,-1.1088896E4,-7.199318E3,-3.752682E3,7.7224384E2,5.4820693E3,9.708518E3,1.4965891E4,2.2375652E4,2.8804895E4,3.40926E4,4.281937E4,5.4192676E4,6.815127E4,8.193018E4,9.680301E4,1.093371E5,1.3385388E5,1.1740369E5,4.7061553E5],"split_indices":[0,0,0,0,0,0,4,0,0,0,0,0,0,0,2,0,0,0,0,0,0,0,0,0,0,0,0,0,1,0,0,0,0,0,0,0,0,0,0,0,0,0,0,0,0,0,0,0,0,0,0,0,0],"split_type":[0,0,0,0,0,0,0,0,0,0,0,0,0,0,0,0,0,0,0,0,0,0,0,0,0,0,0,0,0,0,0,0,0,0,0,0,0,0,0,0,0,0,0,0,0,0,0,0,0,0,0,0,0],"sum_hessian":[1.7325E4,1.6168E4,1.157E3,1.1217E4,4.951E3,1.088E3,6.9E1,5.332E3,5.885E3,3.384E3,1.567E3,8.15E2,2.73E2,3.7E1,3.2E1,2.366E3,2.966E3,3.436E3,2.449E3,2.11E3,1.274E3,9.58E2,6.09E2,5.44E2,2.71E2,2E2,7.3E1,8E0,2.4E1,8.76E2,1.49E3,1.473E3,1.493E3,1.49E3,1.946E3,1.172E3,1.277E3,1.229E3,8.81E2,5.82E2,6.92E2,6.92E2,2.66E2,3.4E2,2.69E2,3.41E2,2.03E2,1.38E2,1.33E2,7E1,1.3E2,1E0,2.3E1],"tree_param":{"num_deleted":"0","num_feature":"10","num_nodes":"53","size_leaf_vector":"1"}},{"base_weights":[3.1709534E2,-9.280636E4,1.4542212E6,-2.1227125E5,2.1845236E5,1.2187524E6,4.709827E6,-3.079785E5,-1.0476945E5,1.1248577E5,4.2690006E5,9.6935694E5,1.8523564E6,2.6227103E5,5.6761265E6,-3.8069984E5,-2.5734808E5,-1.4977356E5,-5.1174598E4,6.606434E4,2.0115914E5,3.4622934E5,5.520018E5,8.272135E5,1.1905051E6,1.6733452E6,1.6194903E5,2.6090911E5,6.150669E6,-3.2048555E4,-2.526214E4,-1.9955098E4,-1.5932439E4,-1.213896E4,-8.766435E3,-4.926104E3,-1.1814496E3,2.903329E3,7.4218457E3,1.2444479E4,1.7153436E4,2.1583912E4,2.7729012E4,3.58578E4,4.4905992E4,5.39925E4,6.545982E4,7.623633E4,9.0077375E4,1.01791305E5,1.2455562E5,1.13294555E5,4.3904503E5],"categories":[],"categories_nodes":[],"categories_segments":[],"categories_sizes":[],"default_left":[0,0,0,0,0,0,0,0,0,0,0,0,0,0,0,0,0,0,0,0,0,0,0,0,0,0,0,0,0,0,0,0,0,0,0,0,0,0,0,0,0,0,0,0,0,0,0,0,0,0,0,0,0],"id":3,"left_children":[1,3,5,7,9,11,13,15,17,19,21,23,25,-1,27,29,31,33,35,37,39,41,43,45,47,49,-1,-1,51,-1,-1,-1,-1,-1,-1,-1,-1,-1,-1,-1,-1,-1,-1,-1,-1,-1,-1,-1,-1,-1,-1,-1,-1],"loss_changes":[2.3459468E15,6.055586E14,7.938169E14,1.210451E14,9.972567E13,1.5211392E14,4.3878057E13,2.282198E13,1.3364407E13,1.2319275E13,1.5168986E13,2.1050977E13,1.8750082E13,0E0,7.5935693E12,3.736353E12,2.963796E12,1.7261239E12,1.6659817E12,1.9293484E12,1.01238335E12,1.632314E12,1.7883338E12,1.8725722E12,1.2553384E12,2.0833276E12,0E0,0E0,3.6042829E12,0E0,0E0,0E0,0E0,0E0,0E0,0E0,0E0,0E0,0E0,0E0,0E0,0E0,0E0,0E0,0E0,0E0,0E0,0E0,0E0,0E0,0E0,0E0,0E0],"parents":[2147483647,0,0,1,1,2,2,3,3,4,4,5,5,6,6,7,7,8,8,9,9,10,10,11,11,12,12,14,14,15,15,16,16,17,17,18,18,19,19,20,20,21,21,22,22,23,23,24,24,25,25,28,28],"right_children":[2,4,6,8,10,12,14,16,18,20,22,24,26,-1,28,30,32,34,36,38,40,42,44,46,48,50,-1,-1,52,-1,-1,-1,-1,-1,-1,-1,-1,-1,-1,-1,-1,-1,-1,-1,-1,-1,-1,-1,-1,-1,-1,-1,-1],"split_conditions":[1.65E6,7.699E5,4.498E6,5.05E5,1.1E6,2.599E6,7.661E3,3.699E5,6.399E5,9.299E5,1.349E6,2.05E6,3.495E6,2.6227103E5,6E0,2.499E5,4.45E5,5.79E5,7E5,8.599E5,9.99999E5,1.209E6,1.536E6,1.899E6,2.3E6,2.849E6,1.6194903E5,2.6090911E5,4.75E6,-3.2048555E4,-2.526214E4,-1.9955098E4,-1.5932439E4,-1.213896E4,-8.766435E3,-4.926104E3,-1.1814496E3,2.903329E3,7.4218457E3,1.2444479E4,1.7153436E4,2.1583912E4,2.7729012E4,3.58578E4,4.4905992E4,5.39925E4,6.545982E4,7.623633E4,9.0077375E4,1.01791305E5,1.2455562E5,1.13294555E5,4.3904503E5],"split_indices":[0,0,0,0,0,0,4,0,0,0,0,0,0,0,2,0,0,0,0,0,0,0,0,0,0,0,0,0,1,0,0,0,0,0,0,0,0,0,0,0,0,0,0,0,0,0,0,0,0,0,0,0,0],"split_type":[0,0,0,0,0,0,0,0,0,0,0,0,0,0,0,0,0,0,0,0,0,0,0,0,0,0,0,0,0,0,0,0,0,0,0,0,0,0,0,0,0,0,0,0,0,0,0,0,0,0,0,0,0],"sum_hessian":[1.7325E4,1.6283E4,1.042E3,1.1767E4,4.516E3,9.73E2,6.9E1,6.224E3,5.543E3,2.995E3,1.521E3,7E2,2.73E2,3.7E1,3.2E1,2.552E3,3.672E3,3.012E3,2.531E3,1.967E3,1.028E3,9.27E2,5.94E2,4.29E2,2.71E2,2E2,7.3E1,8E0,2.4E1,5.17E2,2.035E3,1.896E3,1.776E3,1.531E3,1.481E3,1.622E3,9.09E2,1.219E3,7.48E2,6.74E2,3.54E2,5.31E2,3.96E2,4.16E2,1.78E2,2.88E2,1.41E2,1.38E2,1.33E2,7E1,1.3E2,1E0,2.3E1],"tree_param":{"num_deleted":"0","num_feature":"10","num_nodes":"53","size_leaf_vector":"1"}},{"base_weights":[3.9875125E2,-8.630686E4,1.3541031E6,-1.985322E5,2.0034952E5,1.1341318E6,4.3955035E6,-3.0095272E5,-1.1276745E5,1.0245393E5,3.9710253E5,9.0190956E5,1.7241086E6,3.4913598E6,5.3034415E6,-3.7061303E5,-2.6248016E5,-1.6013917E5,-5.7254883E4,5.7306707E4,1.8311575E5,3.2204644E5,5.134974E5,7.695864E5,1.1077811E6,1.5573372E6,1.507658E5,1.442133E5,2.5520416E5,2.4467478E5,5.7422155E6,-3.0577541E4,-2.4654691E4,-2.0531498E4,-1.6858494E4,-1.3321766E4,-9.586611E3,-5.7669526E3,-2.0023802E3,1.8862007E3,5.9605576E3,1.0324975E4,1.472357E4,2.0075875E4,2.5792871E4,3.0489123E4,3.884146E4,4.8945094E4,5.90883E4,7.093817E4,8.381901E4,9.476627E4,1.1590328E5,1.0932925E5,4.0959244E5],"categories":[],"categories_nodes":[],"categories_segments":[],"categories_sizes":[],"default_left":[0,0,0,0,0,0,0,0,0,0,0,0,0,0,0,0,0,0,0,0,0,0,0,0,0,0,0,0,0,0,0,0,0,0,0,0,0,0,0,0,0,0,0,0,0,0,0,0,0,0,0,0,0,0,0],"id":4,"left_children":[1,3,5,7,9,11,13,15,17,19,21,23,25,27,29,31,33,35,37,39,41,43,45,47,49,51,-1,-1,-1,-1,53,-1,-1,-1,-1,-1,-1,-1,-1,-1,-1,-1,-1,-1,-1,-1,-1,-1,-1,-1,-1,-1,-1,-1,-1],"loss_changes":[2.0337345E15,5.2389783E14,6.92804E14,1.0276612E14,8.821438E13,1.3188865E14,3.89473E13,1.4195169E13,1.6744811E13,1.1136617E13,1.3131057E13,1.8243813E13,1.6280543E13,8.86743E11,6.1091883E12,2.155134E12,2.2239878E12,2.3784975E12,2.1107405E12,1.6580215E12,1.0334933E12,1.4128261E12,1.6772686E12,1.6650716E12,1.0874656E12,1.7849951E12,0E0,0E0,0E0,0E0,2.263649E12,0E0,0E0,0E0,0E0,0E0,0E0,0E0,0E0,0E0,0E0,0E0,0E0,0E0,0E0,0E0,0E0,0E0,0E0,0E0,0E0,0E0,0E0,0E0,0E0],"parents":[2147483647,0,0,1,1,2,2,3,3,4,4,5,5,6,6,7,7,8,8,9,9,10,10,11,11,12,12,13,13,14,14,15,15,16,16,17,17,18,18,19,19,20,20,21,21,22,22,23,23,24,24,25,25,30,30],"right_children":[2,4,6,8,10,12,14,16,18,20,22,24,26,28,30,32,34,36,38,40,42,44,46,48,50,52,-1,-1,-1,-1,54,-1,-1,-1,-1,-1,-1,-1,-1,-1,-1,-1,-1,-1,-1,-1,-1,-1,-1,-1,-1,-1,-1,-1,-1],"split_conditions":[1.65E6,7.6E5,4.498E6,4.799E5,1.1E6,2.599E6,7.661E3,3.35E5,6.15E5,9.25E5,1.349E6,2.05E6,3.495E6,4.75E6,6E0,2.35E5,3.999E5,5.399E5,6.899E5,8.39E5,9.86E5,1.209E6,1.425E6,1.849E6,2.3E6,2.849E6,1.507658E5,1.442133E5,2.5520416E5,2.4467478E5,4.75E6,-3.0577541E4,-2.4654691E4,-2.0531498E4,-1.6858494E4,-1.3321766E4,-9.586611E3,-5.7669526E3,-2.0023802E3,1.8862007E3,5.9605576E3,1.0324975E4,1.472357E4,2.0075875E4,2.5792871E4,3.0489123E4,3.884146E4,4.8945094E4,5.90883E4,7.093817E4,8.381901E4,9.476627E4,1.1590328E5,1.0932925E5,4.0959244E5],"split_indices":[0,0,0,0,0,0,4,0,0,0,0,0,0,1,2,0,0,0,0,0,0,0,0,0,0,0,0,0,0,0,1,0,0,0,0,0,0,0,0,0,0,0,0,0,0,0,0,0,0,0,0,0,0,0,0],"split_type":[0,0,0,0,0,0,0,0,0,0,0,0,0,0,0,0,0,0,0,0,0,0,0,0,0,0,0,0,0,0,0,0,0,0,0,0,0,0,0,0,0,0,0,0,0,0,0,0,0,0,0,0,0,0,0],"sum_hessian":[1.7325E4,1.6283E4,1.042E3,1.1702E4,4.581E3,9.73E2,6.9E1,5.332E3,6.37E3,3.06E3,1.521E3,7E2,2.73E2,3.7E1,3.2E1,1.894E3,3.438E3,3.436E3,2.934E3,1.963E3,1.097E3,9.27E2,5.94E2,4.29E2,2.71E2,2E2,7.3E1,5E0,3.2E1,8E0,2.4E1,4.07E2,1.487E3,1.413E3,2.025E3,1.49E3,1.946E3,1.562E3,1.372E3,9.4E2,1.023E3,4.78E2,6.19E2,5.31E2,3.96E2,2.1E2,3.84E2,2.26E2,2.03E2,1.38E2,1.33E2,7E1,1.3E2,1E0,2.3E1],"tree_param":{"num_deleted":"0","num_feature":"10","num_nodes":"55","size_leaf_vector":"1"}},{"base_weights":[4.754246E2,-8.026385E4,1.2610295E6,-1.8277425E5,1.9129297E5,1.0553835E6,4.104433E6,-2.6649297E5,-8.964603E4,1.045825E5,3.8112594E5,8.391508E5,1.6047401E6,3.2574758E6,4.95534E6,-3.2697828E5,-2.2067416E5,-1.27867195E5,-4.080338E4,5.8697273E4,1.8072811E5,3.16671E5,4.904733E5,7.1596656E5,1.0308055E6,1.4493718E6,1.403548E5,1.3580086E5,2.3788122E5,1.2842756E5,3.568243E5,-2.5913594E4,-2.082526E4,-1.7096285E4,-1.37247295E4,-1.0707493E4,-7.6111196E3,-4.014561E3,-7.360162E2,2.5961262E3,6.4581816E3,1.0732096E4,1.5334205E4,1.9962799E4,2.5628445E4,-2.9164438E4,3.4512707E4,4.6659477E4,5.6802848E4,6.600823E4,7.799546E4,8.822607E4,1.07851984E5],"categories":[],"categories_nodes":[],"categories_segments":[],"categories_sizes":[],"default_left":[0,0,0,0,0,0,0,0,0,0,0,0,0,0,0,0,0,0,0,0,0,0,0,0,0,0,0,0,0,0,0,0,0,0,0,0,0,0,0,0,0,0,0,0,0,0,0,0,0,0,0,0,0],"id":5,"left_children":[1,3,5,7,9,11,13,15,17,19,21,23,25,27,29,31,33,35,37,39,41,43,45,47,49,51,-1,-1,-1,-1,-1,-1,-1,-1,-1,-1,-1,-1,-1,-1,-1,-1,-1,-1,-1,-1,-1,-1,-1,-1,-1,-1,-1],"loss_changes":[1.7634761E15,4.5333917E14,6.0554663E14,9.2147215E13,7.342339E13,1.1435384E14,3.4305917E13,1.7179567E13,1.0445256E13,1.0698376E13,9.704797E12,1.5811754E13,1.4136214E13,4.575818E11,5.286568E12,3.3048767E12,2.0071255E12,1.4914442E12,1.2318592E12,1.3847573E12,1.1769091E12,1.2704966E12,1.4085228E12,1.4878706E12,9.421078E11,1.5291761E12,0E0,0E0,0E0,0E0,0E0,0E0,0E0,0E0,0E0,0E0,0E0,0E0,0E0,0E0,0E0,0E0,0E0,0E0,0E0,0E0,0E0,0E0,0E0,0E0,0E0,0E0,0E0],"parents":[2147483647,0,0,1,1,2,2,3,3,4,4,5,5,6,6,7,7,8,8,9,9,10,10,11,11,12,12,13,13,14,14,15,15,16,16,17,17,18,18,19,19,20,20,21,21,22,22,23,23,24,24,25,25],"right_children":[2,4,6,8,10,12,14,16,18,20,22,24,26,28,30,32,34,36,38,40,42,44,46,48,50,52,-1,-1,-1,-1,-1,-1,-1,-1,-1,-1,-1,-1,-1,-1,-1,-1,-1,-1,-1,-1,-1,-1,-1,-1,-1,-1,-1],"split_conditions":[1.65E6,7.75E5,4.498E6,5.05E5,1.13E6,2.599E6,7.661E3,3.75E5,6.49E5,9.299E5,1.355E6,2.05E6,3.495E6,4.75E6,4E0,2.89999E5,4.49E5,5.73E5,7.19E5,8.599E5,9.99999E5,1.259E6,1E0,1.899E6,2.3E6,2.849E6,1.403548E5,1.3580086E5,2.3788122E5,1.2842756E5,3.568243E5,-2.5913594E4,-2.082526E4,-1.7096285E4,-1.37247295E4,-1.0707493E4,-7.6111196E3,-4.014561E3,-7.360162E2,2.5961262E3,6.4581816E3,1.0732096E4,1.5334205E4,1.9962799E4,2.5628445E4,-2.9164438E4,3.4512707E4,4.6659477E4,5.6802848E4,6.600823E4,7.799546E4,8.822607E4,1.07851984E5],"split_indices":[0,0,0,0,0,0,4,0,0,0,0,0,0,1,2,0,0,0,0,0,0,0,3,0,0,0,0,0,0,0,0,0,0,0,0,0,0,0,0,0,0,0,0,0,0,0,0,0,0,0,0,0,0],"split_type":[0,0,0,0,0,0,0,0,0,0,0,0,0,0,0,0,0,0,0,0,0,0,0,0,0,0,0,0,0,0,0,0,0,0,0,0,0,0,0,0,0,0,0,0,0,0,0,0,0,0,0,0,0],"sum_hessian":[1.7325E4,1.6283E4,1.042E3,1.1821E4,4.462E3,9.73E2,6.9E1,6.224E3,5.597E3,3.064E3,1.398E3,7E2,2.73E2,3.7E1,3.2E1,2.68E3,3.544E3,3.139E3,2.458E3,1.913E3,1.151E3,8.82E2,5.16E2,4.29E2,2.71E2,2E2,7.3E1,5E0,3.2E1,2E0,3E1,1.082E3,1.598E3,1.806E3,1.738E3,1.355E3,1.784E3,1.589E3,8.69E2,1.165E3,7.48E2,6.74E2,4.77E2,5.43E2,3.39E2,1E0,5.15E2,2.88E2,1.41E2,1.38E2,1.33E2,7E1,1.3E2],"tree_param":{"num_deleted":"0","num_feature":"10","num_nodes":"53","size_leaf_vector":"1"}},{"base_weights":[5.245802E2,-8.129397E4,1.0797785E6,-1.8160881E5,1.3672305E5,9.1176394E5,3.829393E6,-2.6574078E5,-1.1209538E5,5.755198E4,2.9419203E5,6.9915056E5,1.4132776E6,3.039286E6,4.623171E6,-3.2969866E5,-2.3600967E5,-1.5312069E5,-7.235612E4,1.7343744E4,1.1280845E5,2.3672475E5,3.8029803E5,5.845391E5,8.522648E5,1.2056079E6,1.7115314E6,1.2787915E5,2.2173412E5,2.1080102E5,5.018466E6,-2.7933193E4,-2.2053375E4,-1.8305424E4,-1.5084161E4,-1.2085503E4,-9.350622E3,-6.346264E3,-3.1881475E3,-2.897346E2,2.8313892E3,6.0067114E3,9.98196E3,1.4761753E4,1.9252455E4,-2.8143682E4,2.6743328E4,3.766346E4,4.5225117E4,5.4380254E4,6.656389E4,7.926379E4,9.3773234E4,1.0630702E5,1.3252667E5,9.3013875E4,3.5817866E5],"categories":[],"categories_nodes":[],"categories_segments":[],"categories_sizes":[],"default_left":[0,0,0,0,0,0,0,0,0,0,0,0,0,0,0,0,0,0,0,0,0,0,0,0,0,0,0,0,0,0,0,0,0,0,0,0,0,0,0,0,0,0,0,0,0,0,0,0,0,0,0,0,0,0,0,0,0],"id":6,"left_children":[1,3,5,7,9,11,13,15,17,19,21,23,25,27,29,31,33,35,37,39,41,43,45,47,49,51,53,-1,-1,-1,55,-1,-1,-1,-1,-1,-1,-1,-1,-1,-1,-1,-1,-1,-1,-1,-1,-1,-1,-1,-1,-1,-1,-1,-1,-1,-1],"loss_changes":[1.5300253E15,3.5226855E14,5.6058047E14,6.4482827E13,6.3265497E13,1.2184795E14,2.985076E13,9.410877E12,9.839292E12,7.505388E12,8.3121374E12,1.3733728E13,1.9119517E13,1.26399545E11,5.911754E12,1.4805054E12,1.7278687E12,1.1110837E12,1.5030341E12,9.7153076E11,1.1322922E12,9.528284E11,1.08159356E12,9.8831224E11,1.8275421E12,4.959345E11,1.9608203E12,0E0,0E0,0E0,2.2749234E12,0E0,0E0,0E0,0E0,0E0,0E0,0E0,0E0,0E0,0E0,0E0,0E0,0E0,0E0,0E0,0E0,0E0,0E0,0E0,0E0,0E0,0E0,0E0,0E0,0E0,0E0],"parents":[2147483647,0,0,1,1,2,2,3,3,4,4,5,5,6,6,7,7,8,8,9,9,10,10,11,11,12,12,13,13,14,14,15,15,16,16,17,17,18,18,19,19,20,20,21,21,22,22,23,23,24,24,25,25,26,26,30,30],"right_children":[2,4,6,8,10,12,14,16,18,20,22,24,26,28,30,32,34,36,38,40,42,44,46,48,50,52,54,-1,-1,-1,56,-1,-1,-1,-1,-1,-1,-1,-1,-1,-1,-1,-1,-1,-1,-1,-1,-1,-1,-1,-1,-1,-1,-1,-1,-1,-1],"split_conditions":[1.536E6,7.25E5,4.498E6,4.65E5,9.99999E5,2.485E6,7.661E3,3.199E5,5.89E5,8.599E5,1.259E6,1.899E6,3E6,4.75E6,6E0,2.15E5,3.9E5,5.25E5,6.599E5,7.949E5,9.299E5,1.169E6,1E0,1.7E6,2.195E6,2.849E6,3.6E6,1.2787915E5,2.2173412E5,2.1080102E5,4.75E6,-2.7933193E4,-2.2053375E4,-1.8305424E4,-1.5084161E4,-1.2085503E4,-9.350622E3,-6.346264E3,-3.1881475E3,-2.897346E2,2.8313892E3,6.0067114E3,9.98196E3,1.4761753E4,1.9252455E4,-2.8143682E4,2.6743328E4,3.766346E4,4.5225117E4,5.4380254E4,6.656389E4,7.926379E4,9.3773234E4,1.0630702E5,1.3252667E5,9.3013875E4,3.5817866E5],"split_indices":[0,0,0,0,0,0,4,0,0,0,0,0,0,1,2,0,0,0,0,0,0,0,3,0,0,0,1,0,0,0,1,0,0,0,0,0,0,0,0,0,0,0,0,0,0,0,0,0,0,0,0,0,0,0,0,0,0],"split_type":[0,0,0,0,0,0,0,0,0,0,0,0,0,0,0,0,0,0,0,0,0,0,0,0,0,0,0,0,0,0,0,0,0,0,0,0,0,0,0,0,0,0,0,0,0,0,0,0,0,0,0,0,0,0,0,0,0],"sum_hessian":[1.7325E4,1.6105E4,1.22E3,1.103E4,5.075E3,1.151E3,6.9E1,4.989E3,6.041E3,3.378E3,1.697E3,8.1E2,3.41E2,3.7E1,3.2E1,1.58E3,3.409E3,2.971E3,3.07E3,1.956E3,1.422E3,1.02E3,6.77E2,4.66E2,3.44E2,2.04E2,1.37E2,5E0,3.2E1,8E0,2.4E1,2.71E2,1.309E3,1.515E3,1.894E3,1.482E3,1.489E3,1.823E3,1.247E3,1.014E3,9.42E2,7.48E2,6.74E2,6.13E2,4.07E2,1E0,6.76E2,2.71E2,1.95E2,2E2,1.44E2,1.38E2,6.6E1,7.1E1,6.6E1,1E0,2.3E1],"tree_param":{"num_deleted":"0","num_feature":"10","num_nodes":"57","size_leaf_vector":"1"}},{"base_weights":[5.7814044E2,-7.347947E4,1.0346341E6,-1.6551688E5,1.3896727E5,8.7034094E5,3.575787E6,-2.4450506E5,-9.8543195E4,6.566137E4,2.9413938E5,6.9433456E5,1.3913294E6,1.9850156E5,4.3196095E6,-3.0406788E5,-2.1584569E5,-1.3528531E5,-5.8077812E4,2.8482197E4,1.25300664E5,2.4052302E5,3.7794916E5,5.942459E5,8.923271E5,1.256125E6,1.21784055E5,3.9769858E6,5.3492494E5,-2.6864465E4,-2.0494836E4,-1.6932117E4,-1.3859796E4,-1.081807E4,-8.03331E3,-5.4672793E3,-2.5578025E3,5.8781903E2,3.8501328E3,7.422084E3,1.1153033E4,1.4531796E4,1.8605611E4,2.3528695E4,3.0056086E4,3.6696508E4,4.6452758E4,5.7156945E4,6.7500695E4,7.666691E4,9.336128E4,3.1037153E5,8.806939E4],"categories":[],"categories_nodes":[],"categories_segments":[],"categories_sizes":[],"default_left":[0,0,0,0,0,0,0,0,0,0,0,0,0,0,0,0,0,0,0,0,0,0,0,0,0,0,0,0,0,0,0,0,0,0,0,0,0,0,0,0,0,0,0,0,0,0,0,0,0,0,0,0,0],"id":7,"left_children":[1,3,5,7,9,11,13,15,17,19,21,23,25,-1,27,29,31,33,35,37,39,41,43,45,47,49,-1,51,-1,-1,-1,-1,-1,-1,-1,-1,-1,-1,-1,-1,-1,-1,-1,-1,-1,-1,-1,-1,-1,-1,-1,-1,-1],"loss_changes":[1.3268962E15,3.1617623E14,4.803462E14,5.9659143E13,5.5581834E13,9.889229E13,2.628332E13,8.769954E12,9.071936E12,7.360217E12,6.95502E12,1.5640224E13,1.0723057E13,0E0,7.171186E12,1.3978776E12,1.5779978E12,1.2470882E12,1.251423E12,1.089857E12,8.191958E11,7.4279446E11,1.1676523E12,2.2987638E12,6.96439E11,1.048878E12,0E0,3.4172807E13,0E0,0E0,0E0,0E0,0E0,0E0,0E0,0E0,0E0,0E0,0E0,0E0,0E0,0E0,0E0,0E0,0E0,0E0,0E0,0E0,0E0,0E0,0E0,0E0,0E0],"parents":[2147483647,0,0,1,1,2,2,3,3,4,4,5,5,6,6,7,7,8,8,9,9,10,10,11,11,12,12,14,14,15,15,16,16,17,17,18,18,19,19,20,20,21,21,22,22,23,23,24,24,25,25,27,27],"right_children":[2,4,6,8,10,12,14,16,18,20,22,24,26,-1,28,30,32,34,36,38,40,42,44,46,48,50,-1,52,-1,-1,-1,-1,-1,-1,-1,-1,-1,-1,-1,-1,-1,-1,-1,-1,-1,-1,-1,-1,-1,-1,-1,-1,-1],"split_conditions":[1.595E6,7.399E5,4.498E6,4.75E5,1.075E6,2.599E6,7.661E3,3.25E5,5.999E5,8.98E5,1.299E6,2.05E6,3.495E6,1.9850156E5,2.1E7,1.99852E5,3.9E5,5.399E5,6.6857E5,8.1E5,9.86E5,1.169E6,1.425E6,1.79E6,2.3E6,2.849E6,1.21784055E5,9E0,5.3492494E5,-2.6864465E4,-2.0494836E4,-1.6932117E4,-1.3859796E4,-1.081807E4,-8.03331E3,-5.4672793E3,-2.5578025E3,5.8781903E2,3.8501328E3,7.422084E3,1.1153033E4,1.4531796E4,1.8605611E4,2.3528695E4,3.0056086E4,3.6696508E4,4.6452758E4,5.7156945E4,6.7500695E4,7.666691E4,9.336128E4,3.1037153E5,8.806939E4],"split_indices":[0,0,0,0,0,0,4,0,0,0,0,0,0,0,0,0,0,0,0,0,0,0,0,0,0,0,0,3,0,0,0,0,0,0,0,0,0,0,0,0,0,0,0,0,0,0,0,0,0,0,0,0,0],"split_type":[0,0,0,0,0,0,0,0,0,0,0,0,0,0,0,0,0,0,0,0,0,0,0,0,0,0,0,0,0,0,0,0,0,0,0,0,0,0,0,0,0,0,0,0,0,0,0,0,0,0,0,0,0],"sum_hessian":[1.7325E4,1.6168E4,1.157E3,1.1281E4,4.887E3,1.088E3,6.9E1,5.175E3,6.106E3,3.32E3,1.567E3,8.15E2,2.73E2,3.7E1,3.2E1,1.678E3,3.497E3,3.199E3,2.907E3,2.046E3,1.274E3,9.58E2,6.09E2,5.44E2,2.71E2,2E2,7.3E1,3.1E1,1E0,2.04E2,1.474E3,1.417E3,2.08E3,1.647E3,1.552E3,1.505E3,1.402E3,1.165E3,8.81E2,8.16E2,4.58E2,4.2E2,5.38E2,3.4E2,2.69E2,2.75E2,2.69E2,1.38E2,1.33E2,7E1,1.3E2,2.6E1,5E0],"tree_param":{"num_deleted":"0","num_feature":"10","num_nodes":"53","size_leaf_vector":"1"}},{"base_weights":[6.3210474E2,-7.032577E4,9.366247E5,-1.5712447E5,1.18316234E5,7.896729E5,3.3416515E6,-2.299346E5,-9.696566E4,5.197597E4,2.5891588E5,6.0513944E5,1.2249562E6,2.6424588E6,4.0455205E6,-2.8534762E5,-2.0417566E5,-1.3247097E5,-6.2573355E4,1.749391E4,1.04062766E5,2.126635E5,3.356798E5,5.0540266E5,7.3839144E5,1.04343225E6,1.4857349E6,1.0884027E5,2.7601292E6,3.7110478E6,5.1620256E5,-2.4993127E4,-1.921266E4,-1.5988958E4,-1.3163042E4,-1.061639E4,-8.226381E3,-5.8597573E3,-3.132071E3,-2.5612656E2,2.6372607E3,5.685468E3,9.231161E3,1.305725E4,1.6941836E4,-2.8210615E4,2.3628816E4,3.2585057E4,3.9073863E4,4.7137117E4,5.763858E4,6.874106E4,8.086933E4,9.22204E4,1.1510941E5,7.6599E4,1.9826133E5,2.894502E5,8.2932E4],"categories":[],"categories_nodes":[],"categories_segments":[],"categories_sizes":[],"default_left":[0,0,0,0,0,0,0,0,0,0,0,0,0,0,0,0,0,0,0,0,0,0,0,0,0,0,0,0,0,0,0,0,0,0,0,0,0,0,0,0,0,0,0,0,0,0,0,0,0,0,0,0,0,0,0,0,0,0,0],"id":8,"left_children":[1,3,5,7,9,11,13,15,17,19,21,23,25,27,29,31,33,35,37,39,41,43,45,47,49,51,53,-1,55,57,-1,-1,-1,-1,-1,-1,-1,-1,-1,-1,-1,-1,-1,-1,-1,-1,-1,-1,-1,-1,-1,-1,-1,-1,-1,-1,-1,-1,-1],"loss_changes":[1.1507903E15,2.6373633E14,4.288908E14,4.829538E13,4.733251E13,9.179231E13,2.375976E13,7.064399E12,7.369648E12,6.1945854E12,5.705302E12,1.0405129E13,1.4639195E13,5.715662E11,9.375477E12,1.1354065E12,1.2904028E12,8.349643E11,1.1536234E12,8.867905E11,8.6212556E11,7.3595355E11,9.807793E11,7.2395365E11,1.3521597E12,2.7365317E11,1.5191098E12,0E0,8.684055E11,2.9374355E13,0E0,0E0,0E0,0E0,0E0,0E0,0E0,0E0,0E0,0E0,0E0,0E0,0E0,0E0,0E0,0E0,0E0,0E0,0E0,0E0,0E0,0E0,0E0,0E0,0E0,0E0,0E0,0E0,0E0],"parents":[2147483647,0,0,1,1,2,2,3,3,4,4,5,5,6,6,7,7,8,8,9,9,10,10,11,11,12,12,13,13,14,14,15,15,16,16,17,17,18,18,19,19,20,20,21,21,22,22,23,23,24,24,25,25,26,26,28,28,29,29],"right_children":[2,4,6,8,10,12,14,16,18,20,22,24,26,28,30,32,34,36,38,40,42,44,46,48,50,52,54,-1,56,58,-1,-1,-1,-1,-1,-1,-1,-1,-1,-1,-1,-1,-1,-1,-1,-1,-1,-1,-1,-1,-1,-1,-1,-1,-1,-1,-1,-1,-1],"split_conditions":[1.536E6,7.25E5,4.498E6,4.65E5,1.029E6,2.485E6,7.661E3,3.199E5,5.89E5,8.75E5,1.288E6,1.899E6,3E6,4.75E6,2.1E7,1.99852E5,3.85E5,5.149E5,6.49E5,7.949E5,9.499E5,1.169E6,1E0,1.7E6,2.195E6,2.849E6,3.6E6,1.0884027E5,1.872E3,9E0,5.1620256E5,-2.4993127E4,-1.921266E4,-1.5988958E4,-1.3163042E4,-1.061639E4,-8.226381E3,-5.8597573E3,-3.132071E3,-2.5612656E2,2.6372607E3,5.685468E3,9.231161E3,1.305725E4,1.6941836E4,-2.8210615E4,2.3628816E4,3.2585057E4,3.9073863E4,4.7137117E4,5.763858E4,6.874106E4,8.086933E4,9.22204E4,1.1510941E5,7.6599E4,1.9826133E5,2.894502E5,8.2932E4],"split_indices":[0,0,0,0,0,0,4,0,0,0,0,0,0,1,0,0,0,0,0,0,0,0,3,0,0,0,1,0,5,3,0,0,0,0,0,0,0,0,0,0,0,0,0,0,0,0,0,0,0,0,0,0,0,0,0,0,0,0,0],"split_type":[0,0,0,0,0,0,0,0,0,0,0,0,0,0,0,0,0,0,0,0,0,0,0,0,0,0,0,0,0,0,0,0,0,0,0,0,0,0,0,0,0,0,0,0,0,0,0,0,0,0,0,0,0,0,0,0,0,0,0],"sum_hessian":[1.7325E4,1.6105E4,1.22E3,1.103E4,5.075E3,1.151E3,6.9E1,4.989E3,6.041E3,3.449E3,1.626E3,8.1E2,3.41E2,3.7E1,3.2E1,1.58E3,3.409E3,2.971E3,3.07E3,2.076E3,1.373E3,1.017E3,6.09E2,4.66E2,3.44E2,2.04E2,1.37E2,5E0,3.2E1,3.1E1,1E0,2.04E2,1.376E3,1.357E3,2.052E3,1.297E3,1.674E3,1.403E3,1.667E3,1.014E3,1.062E3,7.56E2,6.17E2,5.42E2,4.75E2,1E0,6.08E2,2.71E2,1.95E2,2E2,1.44E2,1.38E2,6.6E1,7.1E1,6.6E1,2E0,3E1,2.6E1,5E0],"tree_param":{"num_deleted":"0","num_feature":"10","num_nodes":"59","size_leaf_vector":"1"}},{"base_weights":[6.8870026E2,-6.007589E4,9.493847E5,-1.3746519E5,1.4155733E5,7.9198606E5,3.1259115E6,-2.0503986E5,-7.3412555E4,6.732168E4,2.665226E5,6.2889894E5,1.2063368E6,2.9649472E6,4.9813547E5,-2.5446066E5,-1.7587077E5,-1.0459899E5,-3.4915246E4,3.3692156E4,1.0844197E5,2.1550673E5,3.5944653E5,5.366648E5,7.7239806E5,1.0959488E6,1.0717202E5,3.0919932E6,1.1156329E6,-2.1297863E4,-1.6802854E4,-1.3731941E4,-1.1010705E4,-8.524984E3,-5.9811646E3,-3.754014E3,-1.2863718E3,1.0778777E3,3.3430671E3,5.881188E3,9.018345E3,1.3493822E4,1.7825842E4,-2.7223242E4,2.5295277E4,3.405426E4,4.129066E4,4.9491086E4,5.841193E4,6.663171E4,8.134901E4,1.7273088E5,2.6993912E5,9.189889E3,9.00372E4],"categories":[],"categories_nodes":[],"categories_segments":[],"categories_sizes":[],"default_left":[0,0,0,0,0,0,0,0,0,0,0,0,0,0,0,0,0,0,0,0,0,0,0,0,0,0,0,0,0,0,0,0,0,0,0,0,0,0,0,0,0,0,0,0,0,0,0,0,0,0,0,0,0,0,0],"id":9,"left_children":[1,3,5,7,9,11,13,15,17,19,21,23,25,27,-1,29,31,33,35,37,39,41,43,45,47,49,-1,51,53,-1,-1,-1,-1,-1,-1,-1,-1,-1,-1,-1,-1,-1,-1,-1,-1,-1,-1,-1,-1,-1,-1,-1,-1,-1,-1],"loss_changes":[9.988511E14,2.5411912E14,3.548377E14,5.0920797E13,4.1885712E13,6.5059628E13,2.3861563E13,8.2096287E12,7.2515385E12,3.9167428E12,7.900953E12,8.863588E12,8.142822E12,1.2761891E13,0E0,1.451355E12,1.3281012E12,1.0884177E12,8.365044E11,4.0094283E11,6.242068E11,9.202806E11,9.93035E11,8.608893E11,5.1365125E11,8.769115E11,0E0,2.1026616E13,8.387916E11,0E0,0E0,0E0,0E0,0E0,0E0,0E0,0E0,0E0,0E0,0E0,0E0,0E0,0E0,0E0,0E0,0E0,0E0,0E0,0E0,0E0,0E0,0E0,0E0,0E0,0E0],"parents":[2147483647,0,0,1,1,2,2,3,3,4,4,5,5,6,6,7,7,8,8,9,9,10,10,11,11,12,12,13,13,15,15,16,16,17,17,18,18,19,19,20,20,21,21,22,22,23,23,24,24,25,25,27,27,28,28],"right_children":[2,4,6,8,10,12,14,16,18,20,22,24,26,28,-1,30,32,34,36,38,40,42,44,46,48,50,-1,52,54,-1,-1,-1,-1,-1,-1,-1,-1,-1,-1,-1,-1,-1,-1,-1,-1,-1,-1,-1,-1,-1,-1,-1,-1,-1,-1],"split_conditions":[1.65E6,7.699E5,4.498E6,4.99E5,1.075E6,2.599E6,2.1E7,3.499E5,6.29E5,8.98E5,1.349E6,2.05E6,3.6E6,9E0,4.9813547E5,2.449E5,4.2E5,5.69E5,6.899E5,8.1E5,9.5E5,1.209E6,1E0,1.849E6,2.3E6,2.849E6,1.0717202E5,7.661E3,1E1,-2.1297863E4,-1.6802854E4,-1.3731941E4,-1.1010705E4,-8.524984E3,-5.9811646E3,-3.754014E3,-1.2863718E3,1.0778777E3,3.3430671E3,5.881188E3,9.018345E3,1.3493822E4,1.7825842E4,-2.7223242E4,2.5295277E4,3.405426E4,4.129066E4,4.9491086E4,5.841193E4,6.663171E4,8.134901E4,1.7273088E5,2.6993912E5,9.189889E3,9.00372E4],"split_indices":[0,0,0,0,0,0,0,0,0,0,0,0,1,3,0,0,0,0,0,0,0,0,3,0,0,0,0,4,2,0,0,0,0,0,0,0,0,0,0,0,0,0,0,0,0,0,0,0,0,0,0,0,0,0,0],"split_type":[0,0,0,0,0,0,0,0,0,0,0,0,0,0,0,0,0,0,0,0,0,0,0,0,0,0,0,0,0,0,0,0,0,0,0,0,0,0,0,0,0,0,0,0,0,0,0,0,0,0,0,0,0,0,0],"sum_hessian":[1.7325E4,1.6283E4,1.042E3,1.1767E4,4.516E3,9.73E2,6.9E1,5.725E3,6.042E3,2.834E3,1.682E3,7E2,2.73E2,6.8E1,1E0,2.122E3,3.603E3,3.337E3,2.705E3,1.56E3,1.274E3,1.088E3,5.94E2,4.29E2,2.71E2,2.07E2,6.6E1,6.3E1,5E0,4.72E2,1.65E3,1.717E3,1.886E3,1.756E3,1.581E3,1.268E3,1.437E3,6.79E2,8.81E2,5.82E2,6.92E2,6.92E2,3.96E2,1E0,5.93E2,2.26E2,2.03E2,1.38E2,1.33E2,7E1,1.37E2,3.7E1,2.6E1,1E0,4E0],"tree_param":{"num_deleted":"0","num_feature":"10","num_nodes":"55","size_leaf_vector":"1"}},{"base_weights":[7.238822E2,-6.087734E4,8.132944E5,-1.3596289E5,1.0230815E5,6.8445794E5,2.9219552E6,-2.0016723E5,-8.47676E4,4.3177184E4,2.1991781E5,5.245171E5,1.0617314E6,2.7652545E6,4.8070075E5,-2.5207036E5,-1.7962406E5,-1.174835E5,-5.614028E4,1.3098032E4,8.45136E4,1.7715022E5,2.8399716E5,4.3857444E5,6.393308E5,9.0280344E5,1.2901262E6,2.8824705E6,1.0540764E6,-2.3077822E4,-1.7049355E4,-1.4011469E4,-1.1490692E4,-9.227831E3,-7.2654883E3,-5.17863E3,-2.722826E3,-1.9342326E2,2.110948E3,4.4882793E3,7.4913755E3,1.0623882E4,1.3938806E4,1.8156533E4,2.371315E4,2.83387E4,3.3820777E4,4.0809473E4,4.9911285E4,5.961463E4,6.968352E4,8.02393E4,9.9781945E4,1.609579E5,2.5174322E5,9.359961E4,2.2771217E4],"categories":[],"categories_nodes":[],"categories_segments":[],"categories_sizes":[],"default_left":[0,0,0,0,0,0,0,0,0,0,0,0,0,0,0,0,0,0,0,0,0,0,0,0,0,0,0,0,0,0,0,0,0,0,0,0,0,0,0,0,0,0,0,0,0,0,0,0,0,0,0,0,0,0,0,0,0],"id":10,"left_children":[1,3,5,7,9,11,13,15,17,19,21,23,25,27,-1,29,31,33,35,37,39,41,43,45,47,49,51,53,55,-1,-1,-1,-1,-1,-1,-1,-1,-1,-1,-1,-1,-1,-1,-1,-1,-1,-1,-1,-1,-1,-1,-1,-1,-1,-1,-1,-1],"loss_changes":[8.6730825E14,1.9735866E14,3.297119E14,3.624147E13,3.52909E13,6.895637E13,2.4285691E13,5.1719124E12,5.7430004E12,4.200221E12,4.6030976E12,7.722049E12,1.1249291E13,1.0801474E13,0E0,8.342722E11,1.0822227E12,5.4869885E11,1.00486506E12,5.2958213E11,6.463202E11,5.392428E11,8.26173E11,5.0673903E11,1.0165651E12,1.2428562E11,1.0525354E12,1.8369474E13,8.0274784E11,0E0,0E0,0E0,0E0,0E0,0E0,0E0,0E0,0E0,0E0,0E0,0E0,0E0,0E0,0E0,0E0,0E0,0E0,0E0,0E0,0E0,0E0,0E0,0E0,0E0,0E0,0E0,0E0],"parents":[2147483647,0,0,1,1,2,2,3,3,4,4,5,5,6,6,7,7,8,8,9,9,10,10,11,11,12,12,13,13,15,15,16,16,17,17,18,18,19,19,20,20,21,21,22,22,23,23,24,24,25,25,26,26,27,27,28,28],"right_children":[2,4,6,8,10,12,14,16,18,20,22,24,26,28,-1,30,32,34,36,38,40,42,44,46,48,50,52,54,56,-1,-1,-1,-1,-1,-1,-1,-1,-1,-1,-1,-1,-1,-1,-1,-1,-1,-1,-1,-1,-1,-1,-1,-1,-1,-1,-1,-1],"split_conditions":[1.536E6,7.25E5,4.498E6,4.599E5,9.99999E5,2.485E6,2.1E7,3E5,5.79E5,8.599E5,1.259E6,1.899E6,3E6,9E0,4.8070075E5,1.75E5,3.8E5,5.149E5,6.49E5,7.949E5,9.299E5,1.13E6,1.425E6,1.7E6,2.195E6,2.849E6,3.6E6,7.661E3,1.2E1,-2.3077822E4,-1.7049355E4,-1.4011469E4,-1.1490692E4,-9.227831E3,-7.2654883E3,-5.17863E3,-2.722826E3,-1.9342326E2,2.110948E3,4.4882793E3,7.4913755E3,1.0623882E4,1.3938806E4,1.8156533E4,2.371315E4,2.83387E4,3.3820777E4,4.0809473E4,4.9911285E4,5.961463E4,6.968352E4,8.02393E4,9.9781945E4,1.609579E5,2.5174322E5,9.359961E4,2.2771217E4],"split_indices":[0,0,0,0,0,0,0,0,0,0,0,0,0,3,0,0,0,0,0,0,0,0,0,0,0,0,1,4,7,0,0,0,0,0,0,0,0,0,0,0,0,0,0,0,0,0,0,0,0,0,0,0,0,0,0,0,0],"split_type":[0,0,0,0,0,0,0,0,0,0,0,0,0,0,0,0,0,0,0,0,0,0,0,0,0,0,0,0,0,0,0,0,0,0,0,0,0,0,0,0,0,0,0,0,0,0,0,0,0,0,0,0,0,0,0,0,0],"sum_hessian":[1.7325E4,1.6105E4,1.22E3,1.103E4,5.075E3,1.151E3,6.9E1,4.892E3,6.138E3,3.378E3,1.697E3,8.1E2,3.41E2,6.8E1,1E0,1.384E3,3.508E3,2.863E3,3.275E3,1.956E3,1.422E3,1.02E3,6.77E2,4.66E2,3.44E2,2.04E2,1.37E2,6.3E1,5E0,1.33E2,1.251E3,1.502E3,2.006E3,1.394E3,1.469E3,1.608E3,1.667E3,1.014E3,9.42E2,7.48E2,6.74E2,4.77E2,5.43E2,4.71E2,2.06E2,2.71E2,1.95E2,2E2,1.44E2,1.38E2,6.6E1,7.1E1,6.6E1,3.7E1,2.6E1,3E0,2E0],"tree_param":{"num_deleted":"0","num_feature":"10","num_nodes":"57","size_leaf_vector":"1"}},{"base_weights":[7.576069E2,-5.5015727E4,7.7951256E5,-1.2261441E5,1.07130375E5,6.5330256E5,2.7318438E6,-1.830872E5,-7.240921E4,5.167808E4,2.1991172E5,5.2064625E5,1.0459823E6,2.5793545E6,4.6387622E5,-2.3009795E5,-1.6236777E5,-9.79742E4,-3.763123E4,2.359474E4,9.386167E4,1.8637766E5,2.9553394E5,4.2933716E5,6.4220756E5,9.4281625E5,9.184481E4,2.687146E6,9.996862E5,-1.9697094E4,-1.5349107E4,-1.2471254E4,-1.0083298E4,-7.993717E3,-5.646379E3,-3.6067048E3,-1.5981667E3,5.8946686E2,2.8973818E3,5.527207E3,8.412692E3,1.1671404E4,1.5413819E4,-2.7100389E4,2.0843719E4,2.756474E4,3.3439535E4,3.9057598E4,4.850865E4,5.7918938E4,6.98716E4,1.4998736E5,2.3477386E5,8.8685625E4,2.1708557E4],"categories":[],"categories_nodes":[],"categories_segments":[],"categories_sizes":[],"default_left":[0,0,0,0,0,0,0,0,0,0,0,0,0,0,0,0,0,0,0,0,0,0,0,0,0,0,0,0,0,0,0,0,0,0,0,0,0,0,0,0,0,0,0,0,0,0,0,0,0,0,0,0,0,0,0],"id":11,"left_children":[1,3,5,7,9,11,13,15,17,19,21,23,25,27,-1,29,31,33,35,37,39,41,43,45,47,49,-1,51,53,-1,-1,-1,-1,-1,-1,-1,-1,-1,-1,-1,-1,-1,-1,-1,-1,-1,-1,-1,-1,-1,-1,-1,-1,-1,-1],"loss_changes":[7.5257625E14,1.772393E14,2.8355072E14,3.463413E13,2.9745098E13,5.6183004E13,2.448289E13,5.004241E12,5.5416193E12,3.7780225E12,3.921238E12,8.7815975E12,6.284544E12,9.062683E12,0E0,8.1607734E11,1.01480346E12,1.0000731E12,5.4248866E11,5.1731654E11,4.9057104E11,6.867418E11,8.4715713E11,6.184753E11,1.1018101E12,4.5800122E11,0E0,1.604781E13,7.128162E11,0E0,0E0,0E0,0E0,0E0,0E0,0E0,0E0,0E0,0E0,0E0,0E0,0E0,0E0,0E0,0E0,0E0,0E0,0E0,0E0,0E0,0E0,0E0,0E0,0E0,0E0],"parents":[2147483647,0,0,1,1,2,2,3,3,4,4,5,5,6,6,7,7,8,8,9,9,10,10,11,11,12,12,13,13,15,15,16,16,17,17,18,18,19,19,20,20,21,21,22,22,23,23,24,24,25,25,27,27,28,28],"right_children":[2,4,6,8,10,12,14,16,18,20,22,24,26,28,-1,30,32,34,36,38,40,42,44,46,48,50,-1,52,54,-1,-1,-1,-1,-1,-1,-1,-1,-1,-1,-1,-1,-1,-1,-1,-1,-1,-1,-1,-1,-1,-1,-1,-1,-1,-1],"split_conditions":[1.595E6,7.499E5,4.498E6,4.75E5,1.075E6,2.599E6,2.1E7,3.199E5,6.15E5,8.98E5,1.349E6,1.995E6,3.495E6,9E0,4.6387622E5,2.15E5,3.99999E5,5.499E5,6.79E5,8.1E5,9.86E5,1.209E6,1E0,1.79E6,2.195E6,2.849E6,9.184481E4,7.661E3,1.2E1,-1.9697094E4,-1.5349107E4,-1.2471254E4,-1.0083298E4,-7.993717E3,-5.646379E3,-3.6067048E3,-1.5981667E3,5.8946686E2,2.8973818E3,5.527207E3,8.412692E3,1.1671404E4,1.5413819E4,-2.7100389E4,2.0843719E4,2.756474E4,3.3439535E4,3.9057598E4,4.850865E4,5.7918938E4,6.98716E4,1.4998736E5,2.3477386E5,8.8685625E4,2.1708557E4],"split_indices":[0,0,0,0,0,0,0,0,0,0,0,0,0,3,0,0,0,0,0,0,0,0,3,0,0,0,0,4,7,0,0,0,0,0,0,0,0,0,0,0,0,0,0,0,0,0,0,0,0,0,0,0,0,0,0],"split_type":[0,0,0,0,0,0,0,0,0,0,0,0,0,0,0,0,0,0,0,0,0,0,0,0,0,0,0,0,0,0,0,0,0,0,0,0,0,0,0,0,0,0,0,0,0,0,0,0,0,0,0,0,0,0,0],"sum_hessian":[1.7325E4,1.6168E4,1.157E3,1.1411E4,4.757E3,1.088E3,6.9E1,5.175E3,6.236E3,3.19E3,1.567E3,8.15E2,2.73E2,6.8E1,1E0,1.58E3,3.595E3,3.593E3,2.643E3,1.916E3,1.274E3,1.088E3,4.79E2,4.68E2,3.47E2,2E2,7.3E1,6.3E1,5E0,2.71E2,1.309E3,1.926E3,1.669E3,1.852E3,1.741E3,1.362E3,1.281E3,1.035E3,8.81E2,8.16E2,4.58E2,6.92E2,3.96E2,1E0,4.78E2,2.75E2,1.93E2,1.35E2,2.12E2,7E1,1.3E2,3.7E1,2.6E1,3E0,2E0],"tree_param":{"num_deleted":"0","num_feature":"10","num_nodes":"55","size_leaf_vector":"1"}},{"base_weights":[7.7897424E2,-5.2671203E4,7.058304E5,-1.1837359E5,8.6966164E4,5.9289656E5,2.5543152E6,-1.7668703E5,-7.667393E4,3.6246258E4,1.9017684E5,4.5395084E5,9.206512E5,2.4059758E6,4.4764056E5,-2.2255127E5,-1.5999123E5,-1.0558263E5,-5.0818438E4,1.0405117E4,7.317562E4,1.5323497E5,2.4552711E5,3.797981E5,5.5300994E5,7.818749E5,1.1201331E6,2.5050578E6,9.481072E5,-2.0105926E4,-1.5004034E4,-1.2376143E4,-1.0278747E4,-8.131955E3,-6.398755E3,-4.6485405E3,-2.501467E3,-2.2242664E2,1.829609E3,3.8719446E3,6.5021284E3,9.524961E3,1.2508277E4,-2.6151875E4,1.7289543E4,2.454881E4,2.9277156E4,3.537376E4,4.3069406E4,4.880305E4,5.731747E4,6.9642484E4,8.666012E4,1.3976453E5,2.1894836E5,7.3114478E3,7.671643E4],"categories":[],"categories_nodes":[],"categories_segments":[],"categories_sizes":[],"default_left":[0,0,0,0,0,0,0,0,0,0,0,0,0,0,0,0,0,0,0,0,0,0,0,0,0,0,0,0,0,0,0,0,0,0,0,0,0,0,0,0,0,0,0,0,0,0,0,0,0,0,0,0,0,0,0,0,0],"id":12,"left_children":[1,3,5,7,9,11,13,15,17,19,21,23,25,27,-1,29,31,33,35,37,39,41,43,45,47,49,51,53,55,-1,-1,-1,-1,-1,-1,-1,-1,-1,-1,-1,-1,-1,-1,-1,-1,-1,-1,-1,-1,-1,-1,-1,-1,-1,-1,-1,-1],"loss_changes":[6.5296965E14,1.4777493E14,2.5337717E14,2.6620325E13,2.6973452E13,5.2044266E13,2.4493427E13,3.4607538E12,4.7693347E12,3.2982418E12,3.4343464E12,5.7471696E12,8.591881E12,7.5918916E12,0E0,5.839562E11,7.149359E11,4.4179233E11,7.90976E11,4.349304E11,4.9589623E11,4.2176872E11,7.078014E11,3.7581383E11,7.131407E11,7.055658E10,8.0547414E11,1.401931E13,6.338967E11,0E0,0E0,0E0,0E0,0E0,0E0,0E0,0E0,0E0,0E0,0E0,0E0,0E0,0E0,0E0,0E0,0E0,0E0,0E0,0E0,0E0,0E0,0E0,0E0,0E0,0E0,0E0,0E0],"parents":[2147483647,0,0,1,1,2,2,3,3,4,4,5,5,6,6,7,7,8,8,9,9,10,10,11,11,12,12,13,13,15,15,16,16,17,17,18,18,19,19,20,20,21,21,22,22,23,23,24,24,25,25,26,26,27,27,28,28],"right_children":[2,4,6,8,10,12,14,16,18,20,22,24,26,28,-1,30,32,34,36,38,40,42,44,46,48,50,52,54,56,-1,-1,-1,-1,-1,-1,-1,-1,-1,-1,-1,-1,-1,-1,-1,-1,-1,-1,-1,-1,-1,-1,-1,-1,-1,-1,-1,-1],"split_conditions":[1.536E6,7.19E5,4.498E6,4.499E5,9.99999E5,2.485E6,2.1E7,2.995E5,5.73E5,8.599E5,1.259E6,1.899E6,3E6,9E0,4.4764056E5,1.75E5,3.75E5,5.149E5,6.399E5,7.949E5,9.299E5,1.169E6,1E0,1.7E6,2.195E6,2.599E6,3.6E6,7.661E3,1E1,-2.0105926E4,-1.5004034E4,-1.2376143E4,-1.0278747E4,-8.131955E3,-6.398755E3,-4.6485405E3,-2.501467E3,-2.2242664E2,1.829609E3,3.8719446E3,6.5021284E3,9.524961E3,1.2508277E4,-2.6151875E4,1.7289543E4,2.454881E4,2.9277156E4,3.537376E4,4.3069406E4,4.880305E4,5.731747E4,6.9642484E4,8.666012E4,1.3976453E5,2.1894836E5,7.3114478E3,7.671643E4],"split_indices":[0,0,0,0,0,0,0,0,0,0,0,0,0,3,0,0,0,0,0,0,0,0,3,0,0,0,1,4,2,0,0,0,0,0,0,0,0,0,0,0,0,0,0,0,0,0,0,0,0,0,0,0,0,0,0,0,0],"split_type":[0,0,0,0,0,0,0,0,0,0,0,0,0,0,0,0,0,0,0,0,0,0,0,0,0,0,0,0,0,0,0,0,0,0,0,0,0,0,0,0,0,0,0,0,0,0,0,0,0,0,0,0,0,0,0,0,0],"sum_hessian":[1.7325E4,1.6105E4,1.22E3,1.0952E4,5.153E3,1.151E3,6.9E1,4.565E3,6.387E3,3.456E3,1.697E3,8.1E2,3.41E2,6.8E1,1E0,1.215E3,3.35E3,3.014E3,3.373E3,2.034E3,1.422E3,1.02E3,6.77E2,4.66E2,3.44E2,2.04E2,1.37E2,6.3E1,5E0,1.33E2,1.082E3,1.465E3,1.885E3,1.721E3,1.293E3,1.657E3,1.716E3,1.092E3,9.42E2,7.48E2,6.74E2,6.13E2,4.07E2,1E0,6.76E2,2.71E2,1.95E2,2E2,1.44E2,6.8E1,1.36E2,7.1E1,6.6E1,3.7E1,2.6E1,1E0,4E0],"tree_param":{"num_deleted":"0","num_feature":"10","num_nodes":"57","size_leaf_vector":"1"}},{"base_weights":[7.9548584E2,-4.2758574E4,7.516208E5,-1.0176786E5,1.1387178E5,6.207304E5,2.3882328E6,-1.4943986E5,-4.9430066E4,5.9947816E4,2.2189639E5,4.910624E5,9.0619525E5,2.243974E6,4.3197316E5,-1.8781283E5,-1.25864266E5,-7.2532086E4,-2.324367E4,3.2921125E4,9.909959E4,1.8212636E5,3.0588106E5,4.3122597E5,6.000022E5,8.161595E5,7.9695414E4,2.3353085E6,8.957443E5,-1.5261594E4,-1.2061628E4,-9.880123E3,-7.724021E3,-6.0617734E3,-4.369038E3,-2.3974263E3,-4.2095258E2,1.1461959E3,3.1483179E3,5.353847E3,7.9482495E3,1.1449615E4,1.4685428E4,-2.523656E4,2.1562377E4,2.7238215E4,3.290992E4,4.236523E4,1.8339951E4,5.333453E4,6.4254355E4,1.30238484E5,2.0418961E5,8.000202E4,1.8734846E4],"categories":[],"categories_nodes":[],"categories_segments":[],"categories_sizes":[],"default_left":[0,0,0,0,0,0,0,0,0,0,0,0,0,0,0,0,0,0,0,0,0,0,0,0,0,0,0,0,0,0,0,0,0,0,0,0,0,0,0,0,0,0,0,0,0,0,0,0,0,0,0,0,0,0,0],"id":13,"left_children":[1,3,5,7,9,11,13,15,17,19,21,23,25,27,-1,29,31,33,35,37,39,41,43,45,47,49,-1,51,53,-1,-1,-1,-1,-1,-1,-1,-1,-1,-1,-1,-1,-1,-1,-1,-1,-1,-1,-1,-1,-1,-1,-1,-1,-1,-1],"loss_changes":[5.666182E14,1.513784E14,2.0202358E14,2.9673686E13,2.6094867E13,3.2165782E13,2.4351626E13,5.6079187E12,3.4296394E12,3.1616433E12,4.927678E12,3.7045603E12,4.8018405E12,6.404803E12,0E0,1.07106586E12,8.9965304E11,4.233332E11,5.0418745E11,3.5252535E11,3.9025272E11,4.868706E11,7.968381E11,4.659788E11,2.1691263E11,4.0997644E11,0E0,1.2247032E13,6.255013E11,0E0,0E0,0E0,0E0,0E0,0E0,0E0,0E0,0E0,0E0,0E0,0E0,0E0,0E0,0E0,0E0,0E0,0E0,0E0,0E0,0E0,0E0,0E0,0E0,0E0,0E0],"parents":[2147483647,0,0,1,1,2,2,3,3,4,4,5,5,6,6,7,7,8,8,9,9,10,10,11,11,12,12,13,13,15,15,16,16,17,17,18,18,19,19,20,20,21,21,22,22,23,23,24,24,25,25,27,27,28,28],"right_children":[2,4,6,8,10,12,14,16,18,20,22,24,26,28,-1,30,32,34,36,38,40,42,44,46,48,50,-1,52,54,-1,-1,-1,-1,-1,-1,-1,-1,-1,-1,-1,-1,-1,-1,-1,-1,-1,-1,-1,-1,-1,-1,-1,-1,-1,-1],"split_conditions":[1.7E6,7.79E5,4.498E6,5.05E5,1.13E6,2.599E6,2.1E7,3.59E5,6.399E5,9.25E5,1.425E6,2.195E6,3.495E6,9E0,4.3197316E5,2.749E5,4.39E5,5.69E5,7E5,8.39E5,9.86E5,1.288E6,1E0,1.899E6,7E0,3E6,7.9695414E4,7.661E3,1.2E1,-1.5261594E4,-1.2061628E4,-9.880123E3,-7.724021E3,-6.0617734E3,-4.369038E3,-2.3974263E3,-4.2095258E2,1.1461959E3,3.1483179E3,5.353847E3,7.9482495E3,1.1449615E4,1.4685428E4,-2.523656E4,2.1562377E4,2.7238215E4,3.290992E4,4.236523E4,1.8339951E4,5.333453E4,6.4254355E4,1.30238484E5,2.0418961E5,8.000202E4,1.8734846E4],"split_indices":[0,0,0,0,0,0,0,0,0,0,0,0,0,3,0,0,0,0,0,0,0,0,3,0,3,0,0,4,7,0,0,0,0,0,0,0,0,0,0,0,0,0,0,0,0,0,0,0,0,0,0,0,0,0,0],"split_type":[0,0,0,0,0,0,0,0,0,0,0,0,0,0,0,0,0,0,0,0,0,0,0,0,0,0,0,0,0,0,0,0,0,0,0,0,0,0,0,0,0,0,0,0,0,0,0,0,0,0,0,0,0,0,0],"sum_hessian":[1.7325E4,1.6376E4,9.49E2,1.1895E4,4.481E3,8.8E2,6.9E1,6.224E3,5.671E3,2.99E3,1.491E3,6.07E2,2.73E2,6.8E1,1E0,2.366E3,3.858E3,3.012E3,2.659E3,1.77E3,1.22E3,1.014E3,4.77E2,3.95E2,2.12E2,2E2,7.3E1,6.3E1,5E0,7.98E2,1.568E3,1.94E3,1.918E3,1.257E3,1.755E3,1.622E3,1.037E3,7.47E2,1.023E3,4.78E2,7.42E2,6.11E2,4.03E2,1E0,4.76E2,1.95E2,2E2,2.08E2,4E0,1.36E2,6.4E1,3.7E1,2.6E1,3E0,2E0],"tree_param":{"num_deleted":"0","num_feature":"10","num_nodes":"55","size_leaf_vector":"1"}},{"base_weights":[8.070506E2,-4.428551E4,6.304278E5,-9.868031E4,8.618901E4,5.268102E5,2.2334158E6,-1.4908305E5,-5.950729E4,4.1556438E4,1.7696475E5,4.0197316E5,7.983052E5,2.0931736E6,4.1685406E5,-1.8729458E5,-1.3284014E5,-8.0797125E4,-3.113273E4,1.896524E4,7.5490375E4,1.4976456E5,2.3830648E5,3.46002E5,4.9428922E5,6.782255E5,9.708996E5,2.1770625E6,8.494984E5,-1.7648674E4,-1.2651485E4,-1.0311233E4,-8.43321E3,-6.5979087E3,-4.711635E3,-3.103583E3,-1.371567E3,4.7915674E2,2.322607E3,4.3031733E3,6.509663E3,9.407964E3,1.2334593E4,-2.435328E4,1.6817963E4,2.2249318E4,2.6899145E4,3.159896E4,3.717662E4,4.474602E4,5.2430438E4,6.023475E4,7.525356E4,1.213617E5,1.9042572E5,7.5801914E4,1.7860553E4],"categories":[],"categories_nodes":[],"categories_segments":[],"categories_sizes":[],"default_left":[0,0,0,0,0,0,0,0,0,0,0,0,0,0,0,0,0,0,0,0,0,0,0,0,0,0,0,0,0,0,0,0,0,0,0,0,0,0,0,0,0,0,0,0,0,0,0,0,0,0,0,0,0,0,0,0,0],"id":14,"left_children":[1,3,5,7,9,11,13,15,17,19,21,23,25,27,-1,29,31,33,35,37,39,41,43,45,47,49,51,53,55,-1,-1,-1,-1,-1,-1,-1,-1,-1,-1,-1,-1,-1,-1,-1,-1,-1,-1,-1,-1,-1,-1,-1,-1,-1,-1,-1,-1],"loss_changes":[4.919341E14,1.147621E14,1.9116467E14,2.2523303E13,1.9269941E13,3.6588155E13,2.4070171E13,3.0722354E12,3.8775502E12,2.4448158E12,2.5805246E12,3.6939235E12,6.429499E12,5.3494153E12,0E0,5.863134E11,6.091136E11,6.596969E11,4.1888802E11,3.3004533E11,3.0711166E11,4.1879287E11,6.323186E11,3.832126E11,2.0210254E11,8.706536E10,6.617437E11,1.0698629E13,5.5597597E11,0E0,0E0,0E0,0E0,0E0,0E0,0E0,0E0,0E0,0E0,0E0,0E0,0E0,0E0,0E0,0E0,0E0,0E0,0E0,0E0,0E0,0E0,0E0,0E0,0E0,0E0,0E0,0E0],"parents":[2147483647,0,0,1,1,2,2,3,3,4,4,5,5,6,6,7,7,8,8,9,9,10,10,11,11,12,12,13,13,15,15,16,16,17,17,18,18,19,19,20,20,21,21,22,22,23,23,24,24,25,25,26,26,27,27,28,28],"right_children":[2,4,6,8,10,12,14,16,18,20,22,24,26,28,-1,30,32,34,36,38,40,42,44,46,48,50,52,54,56,-1,-1,-1,-1,-1,-1,-1,-1,-1,-1,-1,-1,-1,-1,-1,-1,-1,-1,-1,-1,-1,-1,-1,-1,-1,-1,-1,-1],"split_conditions":[1.595E6,7.499E5,4.498E6,4.65E5,1.075E6,2.485E6,2.1E7,3.1E5,6E5,8.98E5,1.349E6,1.995E6,3E6,9E0,4.1685406E5,1.75E5,3.9E5,5.399E5,6.7E5,8.1E5,9.75E5,1.209E6,1E0,1.79E6,2.195E6,2.849E6,3.6E6,7.661E3,1.2E1,-1.7648674E4,-1.2651485E4,-1.0311233E4,-8.43321E3,-6.5979087E3,-4.711635E3,-3.103583E3,-1.371567E3,4.7915674E2,2.322607E3,4.3031733E3,6.509663E3,9.407964E3,1.2334593E4,-2.435328E4,1.6817963E4,2.2249318E4,2.6899145E4,3.159896E4,3.717662E4,4.474602E4,5.2430438E4,6.023475E4,7.525356E4,1.213617E5,1.9042572E5,7.5801914E4,1.7860553E4],"split_indices":[0,0,0,0,0,0,0,0,0,0,0,0,0,3,0,0,0,0,0,0,0,0,3,0,0,0,1,4,7,0,0,0,0,0,0,0,0,0,0,0,0,0,0,0,0,0,0,0,0,0,0,0,0,0,0,0,0],"split_type":[0,0,0,0,0,0,0,0,0,0,0,0,0,0,0,0,0,0,0,0,0,0,0,0,0,0,0,0,0,0,0,0,0,0,0,0,0,0,0,0,0,0,0,0,0,0,0,0,0,0,0,0,0,0,0,0,0],"sum_hessian":[1.7325E4,1.6168E4,1.157E3,1.1411E4,4.757E3,1.088E3,6.9E1,4.989E3,6.422E3,3.19E3,1.567E3,7.47E2,3.41E2,6.8E1,1E0,1.485E3,3.504E3,3.668E3,2.754E3,1.916E3,1.274E3,1.088E3,4.79E2,4.68E2,2.79E2,2.04E2,1.37E2,6.3E1,5E0,1.33E2,1.352E3,1.61E3,1.894E3,1.833E3,1.835E3,1.283E3,1.471E3,1.035E3,8.81E2,7.1E2,5.64E2,6.92E2,3.96E2,1E0,4.78E2,2.75E2,1.93E2,1.35E2,1.44E2,1.38E2,6.6E1,7.1E1,6.6E1,3.7E1,2.6E1,3E0,2E0],"tree_param":{"num_deleted":"0","num_feature":"10","num_nodes":"57","size_leaf_vector":"1"}},{"base_weights":[8.1610876E2,-3.8915367E4,6.211292E5,-8.9540445E4,9.039589E4,5.1501034E5,2.0888239E6,-1.346005E5,-4.946938E4,4.6175293E4,1.7927161E5,4.084767E5,7.856859E5,1.9525276E6,4.0226416E5,-1.6681308E5,-1.16028484E5,-7.057189E4,-2.4814023E4,2.4694326E4,8.030223E4,1.5280198E5,2.5704605E5,3.4832697E5,5.0206453E5,7.073361E5,6.9151836E4,2.0295398E6,8.056439E5,-1.430502E4,-1.1001561E4,-8.960768E3,-7.1979443E3,-5.827533E3,-4.194802E3,-2.5920034E3,-8.6504553E2,8.296378E2,2.6266855E3,4.5135957E3,6.617826E3,9.09745E3,1.2079676E4,-2.3500916E4,1.816248E4,2.2155059E4,2.674237E4,3.1929424E4,3.8217305E4,4.319707E4,5.255899E4,1.16613164E5,1.8536236E5,7.182231E4,1.7027062E4],"categories":[],"categories_nodes":[],"categories_segments":[],"categories_sizes":[],"default_left":[0,0,0,0,0,0,0,0,0,0,0,0,0,0,0,0,0,0,0,0,0,0,0,0,0,0,0,0,0,0,0,0,0,0,0,0,0,0,0,0,0,0,0,0,0,0,0,0,0,0,0,0,0,0,0],"id":15,"left_children":[1,3,5,7,9,11,13,15,17,19,21,23,25,27,-1,29,31,33,35,37,39,41,43,45,47,49,-1,51,53,-1,-1,-1,-1,-1,-1,-1,-1,-1,-1,-1,-1,-1,-1,-1,-1,-1,-1,-1,-1,-1,-1,-1,-1,-1,-1],"loss_changes":[4.2704E14,1.06609536E14,1.6137155E14,2.1124335E13,1.7999608E13,2.7765387E13,2.3677718E13,3.2758185E12,3.2219647E12,2.241973E12,3.094008E12,3.7712413E12,3.6419813E12,4.4592833E12,0E0,6.966781E11,5.399831E11,4.455693E11,4.345333E11,3.0931223E11,2.6018526E11,4.9126205E11,6.38933E11,3.4037196E11,2.9937264E11,3.2574643E11,0E0,9.982729E12,4.94105E11,0E0,0E0,0E0,0E0,0E0,0E0,0E0,0E0,0E0,0E0,0E0,0E0,0E0,0E0,0E0,0E0,0E0,0E0,0E0,0E0,0E0,0E0,0E0,0E0,0E0,0E0],"parents":[2147483647,0,0,1,1,2,2,3,3,4,4,5,5,6,6,7,7,8,8,9,9,10,10,11,11,12,12,13,13,15,15,16,16,17,17,18,18,19,19,20,20,21,21,22,22,23,23,24,24,25,25,27,27,28,28],"right_children":[2,4,6,8,10,12,14,16,18,20,22,24,26,28,-1,30,32,34,36,38,40,42,44,46,48,50,-1,52,54,-1,-1,-1,-1,-1,-1,-1,-1,-1,-1,-1,-1,-1,-1,-1,-1,-1,-1,-1,-1,-1,-1,-1,-1,-1,-1],"split_conditions":[1.65E6,7.6E5,4.498E6,4.89E5,1.1E6,2.599E6,2.1E7,3.4E5,6.199E5,9E5,1.425E6,2.05E6,3.495E6,9E0,4.0226416E5,2.35E5,4.2E5,5.499E5,6.859E5,8.39E5,9.86E5,1.209E6,1E0,1.849E6,2.3E6,2.849E6,6.9151836E4,6E0,1.2E1,-1.430502E4,-1.1001561E4,-8.960768E3,-7.1979443E3,-5.827533E3,-4.194802E3,-2.5920034E3,-8.6504553E2,8.296378E2,2.6266855E3,4.5135957E3,6.617826E3,9.09745E3,1.2079676E4,-2.3500916E4,1.816248E4,2.2155059E4,2.674237E4,3.1929424E4,3.8217305E4,4.319707E4,5.255899E4,1.16613164E5,1.8536236E5,7.182231E4,1.7027062E4],"split_indices":[0,0,0,0,0,0,0,0,0,0,0,0,0,3,0,0,0,0,0,0,0,0,3,0,0,0,0,3,7,0,0,0,0,0,0,0,0,0,0,0,0,0,0,0,0,0,0,0,0,0,0,0,0,0,0],"split_type":[0,0,0,0,0,0,0,0,0,0,0,0,0,0,0,0,0,0,0,0,0,0,0,0,0,0,0,0,0,0,0,0,0,0,0,0,0,0,0,0,0,0,0,0,0,0,0,0,0,0,0,0,0,0,0],"sum_hessian":[1.7325E4,1.6283E4,1.042E3,1.1702E4,4.581E3,9.73E2,6.9E1,5.507E3,6.195E3,3.06E3,1.521E3,7E2,2.73E2,6.8E1,1E0,2.011E3,3.496E3,3.337E3,2.858E3,1.879E3,1.181E3,1.137E3,3.84E2,4.29E2,2.71E2,2E2,7.3E1,6.3E1,5E0,4.07E2,1.604E3,1.828E3,1.668E3,1.52E3,1.817E3,1.442E3,1.416E3,9.4E2,9.39E2,5.62E2,6.19E2,5.31E2,6.06E2,1E0,3.83E2,2.26E2,2.03E2,1.38E2,1.33E2,7E1,1.3E2,4.2E1,2.1E1,3E0,2E0],"tree_param":{"num_deleted":"0","num_feature":"10","num_nodes":"55","size_leaf_vector":"1"}},{"base_weights":[8.197379E2,-3.440951E4,6.0813406E5,-8.1899305E4,9.164425E4,5.0051288E5,1.953936E6,-1.1992394E5,-3.9271355E4,5.1122914E4,1.8502078E5,3.9568825E5,7.312897E5,1.8215148E6,3.8818494E5,-1.500174E5,-9.9965164E4,-5.4776656E4,-1.43119795E4,2.9390398E4,8.794918E4,1.5133034E5,2.4658747E5,3.368132E5,4.6717797E5,6.6254494E5,9.337915E5,7.964005E5,1.9065035E6,-1.223978E4,-9.558788E3,-7.8244233E3,-6.119234E3,-4.5569595E3,-3.015587E3,-1.6385277E3,-3.175674E2,1.2880663E3,3.1149004E3,5.246421E3,7.3683984E3,1.0734647E4,1.7257378E3,-2.2678383E4,1.7392396E4,2.193468E4,2.567765E4,2.9710447E4,3.5562062E4,4.2942438E4,5.22714E4,3.5559008E4,6.669345E4,6.346025E4,2.4311666E4,1.392196E5,3.8744766E4],"categories":[],"categories_nodes":[],"categories_segments":[],"categories_sizes":[],"default_left":[0,0,0,0,0,0,0,0,0,0,0,0,0,0,0,0,0,0,0,0,0,0,0,0,0,0,0,0,0,0,0,0,0,0,0,0,0,0,0,0,0,0,0,0,0,0,0,0,0,0,0,0,0,0,0,0,0],"id":16,"left_children":[1,3,5,7,9,11,13,15,17,19,21,23,25,27,-1,29,31,33,35,37,39,41,43,45,47,49,51,53,55,-1,-1,-1,-1,-1,-1,-1,-1,-1,-1,-1,-1,-1,-1,-1,-1,-1,-1,-1,-1,-1,-1,-1,-1,-1,-1,-1,-1],"loss_changes":[3.7071463E14,9.804461E13,1.3661697E14,1.9277659E13,1.6949271E13,2.1022992E13,2.3190726E13,3.7611582E12,2.1703007E12,2.500039E12,2.7753122E12,2.4017004E12,3.195657E12,4.49314E12,0E0,8.137537E11,5.50926E11,4.1496976E11,1.9114318E11,3.2592953E11,2.5320699E11,2.2133971E11,5.919589E11,1.2232268E11,2.5932123E11,4.013865E11,5.726064E10,3.148664E10,5.9184817E12,0E0,0E0,0E0,0E0,0E0,0E0,0E0,0E0,0E0,0E0,0E0,0E0,0E0,0E0,0E0,0E0,0E0,0E0,0E0,0E0,0E0,0E0,0E0,0E0,0E0,0E0,0E0,0E0],"parents":[2147483647,0,0,1,1,2,2,3,3,4,4,5,5,6,6,7,7,8,8,9,9,10,10,11,11,12,12,13,13,15,15,16,16,17,17,18,18,19,19,20,20,21,21,22,22,23,23,24,24,25,25,26,26,27,27,28,28],"right_children":[2,4,6,8,10,12,14,16,18,20,22,24,26,28,-1,30,32,34,36,38,40,42,44,46,48,50,52,54,56,-1,-1,-1,-1,-1,-1,-1,-1,-1,-1,-1,-1,-1,-1,-1,-1,-1,-1,-1,-1,-1,-1,-1,-1,-1,-1,-1,-1],"split_conditions":[1.7E6,7.79E5,4.498E6,5.149E5,1.169E6,2.599E6,2.1E7,3.654E5,6.549E5,9.499E5,1.425E6,2.05E6,3.6E6,4.75E6,3.8818494E5,2.79E5,4.45E5,5.95E5,7E5,8.69E5,1.05E6,1.6E6,1E0,1.899E6,2.3E6,3E6,3.495E6,2.005E3,9E0,-1.223978E4,-9.558788E3,-7.8244233E3,-6.119234E3,-4.5569595E3,-3.015587E3,-1.6385277E3,-3.175674E2,1.2880663E3,3.1149004E3,5.246421E3,7.3683984E3,1.0734647E4,1.7257378E3,-2.2678383E4,1.7392396E4,2.193468E4,2.567765E4,2.9710447E4,3.5562062E4,4.2942438E4,5.22714E4,3.5559008E4,6.669345E4,6.346025E4,2.4311666E4,1.392196E5,3.8744766E4],"split_indices":[0,0,0,0,0,0,0,0,0,0,0,0,1,1,0,0,0,0,0,0,0,1,3,0,0,0,0,5,3,0,0,0,0,0,0,0,0,0,0,0,0,0,0,0,0,0,0,0,0,0,0,0,0,0,0,0,0],"split_type":[0,0,0,0,0,0,0,0,0,0,0,0,0,0,0,0,0,0,0,0,0,0,0,0,0,0,0,0,0,0,0,0,0,0,0,0,0,0,0,0,0,0,0,0,0,0,0,0,0,0,0,0,0,0,0,0,0],"sum_hessian":[1.7325E4,1.6376E4,9.49E2,1.1895E4,4.481E3,8.8E2,6.9E1,6.286E3,5.609E3,3.126E3,1.355E3,6.07E2,2.73E2,6.8E1,1E0,2.504E3,3.782E3,3.459E3,2.15E3,1.967E3,1.159E3,8.78E2,4.77E2,3.36E2,2.71E2,2.07E2,6.6E1,6E0,6.2E1,8.76E2,1.628E3,1.944E3,1.838E3,1.835E3,1.624E3,1.113E3,1.037E3,1.14E3,8.27E2,6.65E2,4.94E2,8.64E2,1.4E1,1E0,4.76E2,1.95E2,1.41E2,1.38E2,1.33E2,1.36E2,7.1E1,4E0,6.2E1,4E0,2E0,5.8E1,4E0],"tree_param":{"num_deleted":"0","num_feature":"10","num_nodes":"57","size_leaf_vector":"1"}},{"base_weights":[8.167926E2,-3.671293E4,4.958642E5,-8.193189E4,6.1562695E4,4.14579E5,1.8265022E6,-1.20742516E5,-5.0985105E4,2.6093281E4,1.3211016E5,3.171438E5,6.444193E5,1.69786E6,3.745985E5,-1.560817E5,-1.0902604E5,-6.860298E4,-3.1412352E4,1.0093233E4,5.4291164E4,1.0844585E5,1.7414019E5,2.7388688E5,3.981993E5,5.4659025E5,7.850753E5,1.3694531E6,2.0347851E6,-1.4578214E4,-1.0463706E4,-8.504733E3,-6.900812E3,-5.440674E3,-4.090129E3,-2.7905696E3,-1.4086365E3,1.1541951E2,1.6952236E3,3.070407E3,4.696894E3,5.1512544E3,8.075135E3,-2.188464E4,1.22817E4,1.7693168E4,2.1657545E4,2.8073768E4,1.1269333E4,4.237046E4,3.595927E4,4.866321E4,6.0896656E4,1.2732256E5,7.440918E4,5.812869E4,1.6811503E5],"categories":[],"categories_nodes":[],"categories_segments":[],"categories_sizes":[],"default_left":[0,0,0,0,0,0,0,0,0,0,0,0,0,0,0,0,0,0,0,0,0,0,0,0,0,0,0,0,0,0,0,0,0,0,0,0,0,0,0,0,0,0,0,0,0,0,0,0,0,0,0,0,0,0,0,0,0],"id":17,"left_children":[1,3,5,7,9,11,13,15,17,19,21,23,25,27,-1,29,31,33,35,37,39,41,43,45,47,49,51,53,55,-1,-1,-1,-1,-1,-1,-1,-1,-1,-1,-1,-1,-1,-1,-1,-1,-1,-1,-1,-1,-1,-1,-1,-1,-1,-1,-1,-1],"loss_changes":[3.2191783E14,7.157884E13,1.3130755E14,1.3242777E13,1.2698111E13,2.559413E13,2.2655667E13,2.008929E12,2.1147565E12,1.5239471E12,1.6699663E12,2.7344765E12,4.2768815E12,4.848196E12,0E0,3.8764387E11,4.669896E11,2.9514898E11,2.768841E11,2.5722667E11,1.6039726E11,2.5392736E11,4.4462768E11,3.2088103E11,1.2502801E11,8.480883E10,4.480691E11,3.3005733E12,1.2144356E13,0E0,0E0,0E0,0E0,0E0,0E0,0E0,0E0,0E0,0E0,0E0,0E0,0E0,0E0,0E0,0E0,0E0,0E0,0E0,0E0,0E0,0E0,0E0,0E0,0E0,0E0,0E0,0E0],"parents":[2147483647,0,0,1,1,2,2,3,3,4,4,5,5,6,6,7,7,8,8,9,9,10,10,11,11,12,12,13,13,15,15,16,16,17,17,18,18,19,19,20,20,21,21,22,22,23,23,24,24,25,25,26,26,27,27,28,28],"right_children":[2,4,6,8,10,12,14,16,18,20,22,24,26,28,-1,30,32,34,36,38,40,42,44,46,48,50,52,54,56,-1,-1,-1,-1,-1,-1,-1,-1,-1,-1,-1,-1,-1,-1,-1,-1,-1,-1,-1,-1,-1,-1,-1,-1,-1,-1,-1,-1],"split_conditions":[1.536E6,7.25E5,4.498E6,4.599E5,9.99999E5,2.485E6,2.1E7,2.995E5,5.95E5,8.79E5,1.288E6,1.995E6,3E6,7.661E3,3.745985E5,1.75E5,3.8E5,5.29E5,6.599E5,7.99999E5,9.499E5,1.902E3,1E0,1.79E6,7E0,9E0,3.6E6,4E0,6E0,-1.4578214E4,-1.0463706E4,-8.504733E3,-6.900812E3,-5.440674E3,-4.090129E3,-2.7905696E3,-1.4086365E3,1.1541951E2,1.6952236E3,3.070407E3,4.696894E3,5.1512544E3,8.075135E3,-2.188464E4,1.22817E4,1.7693168E4,2.1657545E4,2.8073768E4,1.1269333E4,4.237046E4,3.595927E4,4.866321E4,6.0896656E4,1.2732256E5,7.440918E4,5.812869E4,1.6811503E5],"split_indices":[0,0,0,0,0,0,0,0,0,0,0,0,0,4,0,0,0,0,0,0,0,5,3,0,3,7,1,2,2,0,0,0,0,0,0,0,0,0,0,0,0,0,0,0,0,0,0,0,0,0,0,0,0,0,0,0,0],"split_type":[0,0,0,0,0,0,0,0,0,0,0,0,0,0,0,0,0,0,0,0,0,0,0,0,0,0,0,0,0,0,0,0,0,0,0,0,0,0,0,0,0,0,0,0,0,0,0,0,0,0,0,0,0,0,0,0,0],"sum_hessian":[1.7325E4,1.6105E4,1.22E3,1.103E4,5.075E3,1.151E3,6.9E1,4.892E3,6.138E3,3.378E3,1.697E3,8.1E2,3.41E2,6.8E1,1E0,1.215E3,3.677E3,3.229E3,2.909E3,2.156E3,1.222E3,1.088E3,6.09E2,5.31E2,2.79E2,2.04E2,1.37E2,3.7E1,3.1E1,1.33E2,1.082E3,1.671E3,2.006E3,1.699E3,1.53E3,1.662E3,1.247E3,1.35E3,8.06E2,6.76E2,5.46E2,1.82E2,9.06E2,1E0,6.08E2,3.38E2,1.93E2,2.75E2,4E0,6.7E1,1.37E2,7.1E1,6.6E1,1.3E1,2.4E1,8E0,2.3E1],"tree_param":{"num_deleted":"0","num_feature":"10","num_nodes":"57","size_leaf_vector":"1"}},{"base_weights":[8.1895605E2,-3.1326445E4,5.0269328E5,-7.388378E4,6.834431E4,4.1532438E5,1.7111878E6,-1.0945573E5,-4.2670113E4,3.1114963E4,1.3889127E5,3.2885762E5,6.339112E5,1.5863034E6,3.6148756E5,-1.3576925E5,-9.49243E4,-5.8134477E4,-2.2551469E4,1.4267806E4,5.6420758E4,1.1395112E5,1.9491886E5,2.8004034E5,4.0464353E5,5.749297E5,5.635021E4,1.3153165E6,2.0106276E6,-1.226264E4,-9.035932E3,-7.324182E3,-5.9035396E3,-4.750701E3,-3.4037803E3,-2.10701E3,-8.6436725E2,3.682625E2,1.7381825E3,3.349149E3,5.009364E3,7.017731E3,9.358692E3,-2.1118678E4,1.3752618E4,1.7898898E4,2.1411635E4,2.8621033E4,1.0432835E4,3.459987E4,4.2857867E4,7.912901E4,1.3505261E5,1.6108548E5,2.7160607E4],"categories":[],"categories_nodes":[],"categories_segments":[],"categories_sizes":[],"default_left":[0,0,0,0,0,0,0,0,0,0,0,0,0,0,0,0,0,0,0,0,0,0,0,0,0,0,0,0,0,0,0,0,0,0,0,0,0,0,0,0,0,0,0,0,0,0,0,0,0,0,0,0,0,0,0],"id":18,"left_children":[1,3,5,7,9,11,13,15,17,19,21,23,25,27,-1,29,31,33,35,37,39,41,43,45,47,49,-1,51,53,-1,-1,-1,-1,-1,-1,-1,-1,-1,-1,-1,-1,-1,-1,-1,-1,-1,-1,-1,-1,-1,-1,-1,-1,-1,-1],"loss_changes":[2.7953526E14,6.907725E13,1.0941429E14,1.2666433E13,1.2794211E13,1.8200612E13,2.1993286E13,2.0263018E12,1.890312E12,1.3596167E12,2.3295039E12,2.476443E12,2.3122695E12,5.2894536E12,0E0,4.7661764E11,3.44625E11,3.1478776E11,2.0327419E11,1.8225922E11,1.6213554E11,3.0221953E11,4.5649546E11,1.9162726E11,2.3303972E11,3.234857E11,0E0,2.9279597E12,1.0895174E13,0E0,0E0,0E0,0E0,0E0,0E0,0E0,0E0,0E0,0E0,0E0,0E0,0E0,0E0,0E0,0E0,0E0,0E0,0E0,0E0,0E0,0E0,0E0,0E0,0E0,0E0],"parents":[2147483647,0,0,1,1,2,2,3,3,4,4,5,5,6,6,7,7,8,8,9,9,10,10,11,11,12,12,13,13,15,15,16,16,17,17,18,18,19,19,20,20,21,21,22,22,23,23,24,24,25,25,27,27,28,28],"right_children":[2,4,6,8,10,12,14,16,18,20,22,24,26,28,-1,30,32,34,36,38,40,42,44,46,48,50,-1,52,54,-1,-1,-1,-1,-1,-1,-1,-1,-1,-1,-1,-1,-1,-1,-1,-1,-1,-1,-1,-1,-1,-1,-1,-1,-1,-1],"split_conditions":[1.65E6,7.499E5,4.75E6,4.799E5,1.075E6,2.599E6,2.1E7,3.35E5,6.15E5,8.98E5,1.355E6,2.05E6,3.6E6,6E0,3.6148756E5,2.15E5,4.15E5,5.499E5,6.859E5,8.1E5,9.86E5,1.209E6,1E0,1.849E6,2.9E6,2.849E6,5.635021E4,2.02E3,9E0,-1.226264E4,-9.035932E3,-7.324182E3,-5.9035396E3,-4.750701E3,-3.4037803E3,-2.10701E3,-8.6436725E2,3.682625E2,1.7381825E3,3.349149E3,5.009364E3,7.017731E3,9.358692E3,-2.1118678E4,1.3752618E4,1.7898898E4,2.1411635E4,2.8621033E4,1.0432835E4,3.459987E4,4.2857867E4,7.912901E4,1.3505261E5,1.6108548E5,2.7160607E4],"split_indices":[0,0,1,0,0,0,0,0,0,0,0,0,1,3,0,0,0,0,0,0,0,0,3,0,1,0,0,5,3,0,0,0,0,0,0,0,0,0,0,0,0,0,0,0,0,0,0,0,0,0,0,0,0,0,0],"split_type":[0,0,0,0,0,0,0,0,0,0,0,0,0,0,0,0,0,0,0,0,0,0,0,0,0,0,0,0,0,0,0,0,0,0,0,0,0,0,0,0,0,0,0,0,0,0,0,0,0,0,0,0,0,0,0],"sum_hessian":[1.7325E4,1.6283E4,1.042E3,1.1411E4,4.872E3,9.73E2,6.9E1,5.332E3,6.079E3,3.19E3,1.682E3,6.99E2,2.74E2,6.8E1,1E0,1.894E3,3.438E3,3.436E3,2.643E3,1.916E3,1.274E3,1.166E3,5.16E2,4.28E2,2.71E2,2.07E2,6.7E1,4.4E1,2.4E1,2.71E2,1.623E3,1.789E3,1.649E3,1.695E3,1.741E3,1.518E3,1.125E3,1.035E3,8.81E2,8.16E2,4.58E2,6.92E2,4.74E2,1E0,5.15E2,2.26E2,2.02E2,2.66E2,5E0,7E1,1.37E2,3.6E1,8E0,2E1,4E0],"tree_param":{"num_deleted":"0","num_feature":"10","num_nodes":"55","size_leaf_vector":"1"}},{"base_weights":[8.1645294E2,-3.1778127E4,4.3076525E5,-7.132837E4,5.2278055E4,3.591014E5,1.6039938E6,-1.0665501E5,-4.6066504E4,2.2820504E4,1.16121914E5,2.744622E5,5.587602E5,1.4827948E6,3.4883547E5,-1.3787314E5,-9.692025E4,-6.2643066E4,-2.9511824E4,8.159816E3,4.8124844E4,9.717686E4,1.5334948E5,2.373638E5,3.439689E5,4.739595E5,6.806832E5,1.1859219E6,1.7889939E6,-1.4153031E4,-9.335571E3,-7.4300137E3,-6.135299E3,-4.8370825E3,-3.751272E3,-2.5452961E3,-1.2738673E3,-1.02854866E2,1.275541E3,2.6451873E3,4.1559165E3,5.776363E3,7.823392E3,-2.0379525E4,1.0828774E4,1.5361473E4,1.8721074E4,2.1823453E4,2.6026213E4,3.597079E4,3.0003498E4,4.2345723E4,5.2634445E4,1.1273291E5,6.3051664E4,4.8313348E4,1.4885525E5],"categories":[],"categories_nodes":[],"categories_segments":[],"categories_sizes":[],"default_left":[0,0,0,0,0,0,0,0,0,0,0,0,0,0,0,0,0,0,0,0,0,0,0,0,0,0,0,0,0,0,0,0,0,0,0,0,0,0,0,0,0,0,0,0,0,0,0,0,0,0,0,0,0,0,0,0,0],"id":19,"left_children":[1,3,5,7,9,11,13,15,17,19,21,23,25,27,-1,29,31,33,35,37,39,41,43,45,47,49,51,53,55,-1,-1,-1,-1,-1,-1,-1,-1,-1,-1,-1,-1,-1,-1,-1,-1,-1,-1,-1,-1,-1,-1,-1,-1,-1,-1,-1,-1],"loss_changes":[2.4282027E14,5.354719E13,1.0208335E14,9.769729E12,9.690395E12,1.9314233E13,2.1281026E13,1.3742469E12,1.751144E12,1.3084213E12,1.1325858E12,2.0095833E12,3.2133653E12,4.1506497E12,0E0,2.8701413E11,2.886625E11,1.8286956E11,2.4716404E11,2.1657733E11,1.4816798E11,2.2188602E11,3.726094E11,2.2798349E11,1.3507966E11,1.5067198E11,2.897551E11,3.150216E12,1.0399718E13,0E0,0E0,0E0,0E0,0E0,0E0,0E0,0E0,0E0,0E0,0E0,0E0,0E0,0E0,0E0,0E0,0E0,0E0,0E0,0E0,0E0,0E0,0E0,0E0,0E0,0E0,0E0,0E0],"parents":[2147483647,0,0,1,1,2,2,3,3,4,4,5,5,6,6,7,7,8,8,9,9,10,10,11,11,12,12,13,13,15,15,16,16,17,17,18,18,19,19,20,20,21,21,22,22,23,23,24,24,25,25,26,26,27,27,28,28],"right_children":[2,4,6,8,10,12,14,16,18,20,22,24,26,28,-1,30,32,34,36,38,40,42,44,46,48,50,52,54,56,-1,-1,-1,-1,-1,-1,-1,-1,-1,-1,-1,-1,-1,-1,-1,-1,-1,-1,-1,-1,-1,-1,-1,-1,-1,-1,-1,-1],"split_conditions":[1.536E6,7.19E5,4.498E6,4.499E5,1.029E6,2.485E6,2.1E7,2.89999E5,5.79E5,8.79E5,1.299E6,1.995E6,3E6,7.661E3,3.4883547E5,1.449E5,3.799E5,5.249E5,6.549E5,7.99E5,9.499E5,1.169E6,1E0,1.79E6,2.195E6,2.001E3,3.6E6,4E0,6E0,-1.4153031E4,-9.335571E3,-7.4300137E3,-6.135299E3,-4.8370825E3,-3.751272E3,-2.5452961E3,-1.2738673E3,-1.02854866E2,1.275541E3,2.6451873E3,4.1559165E3,5.776363E3,7.823392E3,-2.0379525E4,1.0828774E4,1.5361473E4,1.8721074E4,2.1823453E4,2.6026213E4,3.597079E4,3.0003498E4,4.2345723E4,5.2634445E4,1.1273291E5,6.3051664E4,4.8313348E4,1.4885525E5],"split_indices":[0,0,0,0,0,0,0,0,0,0,0,0,0,4,0,0,0,0,0,0,0,0,3,0,0,5,1,2,2,0,0,0,0,0,0,0,0,0,0,0,0,0,0,0,0,0,0,0,0,0,0,0,0,0,0,0,0],"split_type":[0,0,0,0,0,0,0,0,0,0,0,0,0,0,0,0,0,0,0,0,0,0,0,0,0,0,0,0,0,0,0,0,0,0,0,0,0,0,0,0,0,0,0,0,0,0,0,0,0,0,0,0,0,0,0,0,0],"sum_hessian":[1.7325E4,1.6105E4,1.22E3,1.0952E4,5.153E3,1.151E3,6.9E1,4.565E3,6.387E3,3.527E3,1.626E3,8.1E2,3.41E2,6.8E1,1E0,1.082E3,3.483E3,3.19E3,3.197E3,2.234E3,1.293E3,1.08E3,5.46E2,5.31E2,2.79E2,2.04E2,1.37E2,3.7E1,3.1E1,6.8E1,1.014E3,1.741E3,1.742E3,1.858E3,1.332E3,1.99E3,1.207E3,1.142E3,1.092E3,6.76E2,6.17E2,5.42E2,5.38E2,1E0,5.45E2,3.38E2,1.93E2,1.35E2,1.44E2,1.03E2,1.01E2,7.1E1,6.6E1,1.3E1,2.4E1,8E0,2.3E1],"tree_param":{"num_deleted":"0","num_feature":"10","num_nodes":"57","size_leaf_vector":"1"}},{"base_weights":[8.128149E2,-2.5761713E4,4.5892884E5,-6.1321105E4,6.862479E4,3.7534206E5,1.5043721E6,-9.2646664E4,-3.2244549E4,3.5962773E4,1.3405608E5,3.102303E5,5.8853875E5,1.3867849E6,3.3662625E5,-1.1555733E5,-7.912502E4,-4.776078E4,-1.5537964E4,1.9856979E4,5.9293973E4,1.0932302E5,1.8629455E5,2.5910566E5,3.804918E5,5.32318E5,6.9397875E5,1.4531104E6,2.47196E5,-9.857555E3,-7.5135503E3,-6.113965E3,-4.8128496E3,-3.8532847E3,-2.7482585E3,-1.7384943E3,-5.0179166E2,6.895442E2,1.9002838E3,4.367574E3,1.5326298E3,7.76201E3,3.3695294E2,-1.9666242E4,1.3150415E4,1.644595E4,1.9704328E4,3.0115096E4,2.477223E4,2.6149844E4,3.8208754E4,5.568747E4,4.2538773E4,8.054829E4,1.4223711E5,3.0474594E4,-1.63506E3],"categories":[],"categories_nodes":[],"categories_segments":[],"categories_sizes":[],"default_left":[0,0,0,0,0,0,0,0,0,0,0,0,0,0,0,0,0,0,0,0,0,0,0,0,0,0,0,0,0,0,0,0,0,0,0,0,0,0,0,0,0,0,0,0,0,0,0,0,0,0,0,0,0,0,0,0,0],"id":20,"left_children":[1,3,5,7,9,11,13,15,17,19,21,23,25,27,-1,29,31,33,35,37,39,41,43,45,47,49,51,53,55,-1,-1,-1,-1,-1,-1,-1,-1,-1,-1,-1,-1,-1,-1,-1,-1,-1,-1,-1,-1,-1,-1,-1,-1,-1,-1,-1,-1],"loss_changes":[2.1094232E14,5.4970775E13,8.245133E13,1.0832356E13,9.57374E12,1.2047123E13,2.0531336E13,1.7647115E12,1.5989243E12,1.1227434E12,1.9073241E12,2.333262E12,8.457982E11,4.8560897E12,0E0,4.25833E11,3.01107E11,1.959584E11,2.3117182E11,1.2891927E11,1.401912E11,1.6524719E11,4.0309568E11,1.4752206E11,2.2210098E11,9.230824E10,1.1240525E11,9.04047E12,2.6469984E11,0E0,0E0,0E0,0E0,0E0,0E0,0E0,0E0,0E0,0E0,0E0,0E0,0E0,0E0,0E0,0E0,0E0,0E0,0E0,0E0,0E0,0E0,0E0,0E0,0E0,0E0,0E0,0E0],"parents":[2147483647,0,0,1,1,2,2,3,3,4,4,5,5,6,6,7,7,8,8,9,9,10,10,11,11,12,12,13,13,15,15,16,16,17,17,18,18,19,19,20,20,21,21,22,22,23,23,24,24,25,25,26,26,27,27,28,28],"right_children":[2,4,6,8,10,12,14,16,18,20,22,24,26,28,-1,30,32,34,36,38,40,42,44,46,48,50,52,54,56,-1,-1,-1,-1,-1,-1,-1,-1,-1,-1,-1,-1,-1,-1,-1,-1,-1,-1,-1,-1,-1,-1,-1,-1,-1,-1,-1,-1],"split_conditions":[1.7E6,7.79E5,4.75E6,4.99E5,1.13E6,2.849E6,2.1E7,3.499E5,6.249E5,9.25E5,1.425E6,2.195E6,3.6E6,9E0,3.3662625E5,2.499E5,4.29889E5,5.65E5,6.899E5,8.39E5,1.1499E6,1.6E6,1E0,1.899E6,9E0,2.9E6,5E0,6E0,1.2E1,-9.857555E3,-7.5135503E3,-6.113965E3,-4.8128496E3,-3.8532847E3,-2.7482585E3,-1.7384943E3,-5.0179166E2,6.895442E2,1.9002838E3,4.367574E3,1.5326298E3,7.76201E3,3.3695294E2,-1.9666242E4,1.3150415E4,1.644595E4,1.9704328E4,3.0115096E4,2.477223E4,2.6149844E4,3.8208754E4,5.568747E4,4.2538773E4,8.054829E4,1.4223711E5,3.0474594E4,-1.63506E3],"split_indices":[0,0,1,0,0,0,0,0,0,0,0,0,1,3,0,0,0,0,0,0,1,1,3,0,7,1,2,3,7,0,0,0,0,0,0,0,0,0,0,0,0,0,0,0,0,0,0,0,0,0,0,0,0,0,0,0,0],"split_type":[0,0,0,0,0,0,0,0,0,0,0,0,0,0,0,0,0,0,0,0,0,0,0,0,0,0,0,0,0,0,0,0,0,0,0,0,0,0,0,0,0,0,0,0,0,0,0,0,0,0,0,0,0,0,0,0,0],"sum_hessian":[1.7325E4,1.6376E4,9.49E2,1.1895E4,4.481E3,8.8E2,6.9E1,5.725E3,6.17E3,2.99E3,1.491E3,6.76E2,2.04E2,6.8E1,1E0,2.122E3,3.603E3,3.198E3,2.972E3,1.77E3,1.22E3,1.014E3,4.77E2,3.94E2,2.82E2,1.37E2,6.7E1,6.4E1,4E0,5.17E2,1.605E3,2.006E3,1.597E3,1.719E3,1.479E3,1.407E3,1.565E3,7.47E2,1.023E3,1.126E3,9.4E1,9.99E2,1.5E1,1E0,4.76E2,1.95E2,1.99E2,9.3E1,1.89E2,1.3E1,1.24E2,2.7E1,4E1,4.4E1,2E1,2E0,2E0],"tree_param":{"num_deleted":"0","num_feature":"10","num_nodes":"57","size_leaf_vector":"1"}},{"base_weights":[8.0295166E2,-2.6713918E4,3.8501666E5,-6.078463E4,4.887901E4,3.189183E5,1.4078175E6,-9.229332E4,-3.891418E4,2.1814947E4,1.0460913E5,2.4259512E5,4.849149E5,1.2937095E6,3.2484434E5,-1.1857264E5,-8.341165E4,-5.2570113E4,-2.284374E4,9.077933E3,4.3133457E4,9.002081E4,1.4938402E5,2.0967645E5,2.968675E5,4.117709E5,5.9005694E5,1.02657425E6,1.5705041E6,-1.2496648E4,-8.02505E3,-6.3951274E3,-5.3011763E3,-4.1452056E3,-3.0614639E3,-2.0531763E3,-9.67344E2,1.796823E2,1.3601263E3,3.2345442E3,3.6511526E2,5.531284E3,7.531817E3,-1.8977924E4,1.057761E4,1.1536005E4,1.538273E4,2.09711E4,6.1159556E3,2.015106E4,2.9601564E4,3.8181453E4,4.7999664E4,5.062719E4,9.789138E4,3.9335668E4,1.3182952E5],"categories":[],"categories_nodes":[],"categories_segments":[],"categories_sizes":[],"default_left":[0,0,0,0,0,0,0,0,0,0,0,0,0,0,0,0,0,0,0,0,0,0,0,0,0,0,0,0,0,0,0,0,0,0,0,0,0,0,0,0,0,0,0,0,0,0,0,0,0,0,0,0,0,0,0,0,0],"id":21,"left_children":[1,3,5,7,9,11,13,15,17,19,21,23,25,27,-1,29,31,33,35,37,39,41,43,45,47,49,51,53,55,-1,-1,-1,-1,-1,-1,-1,-1,-1,-1,-1,-1,-1,-1,-1,-1,-1,-1,-1,-1,-1,-1,-1,-1,-1,-1,-1,-1],"loss_changes":[1.8318695E14,4.164631E13,7.7838095E13,7.6772205E12,7.5753346E12,1.367932E13,1.9818665E13,1.05583634E12,1.443045E12,9.182085E11,1.059089E12,1.2741121E12,2.387188E12,3.4897364E12,0E0,2.5065056E11,2.0159503E11,2.0629999E11,1.7669436E11,1.4278178E11,1.4722033E11,2.3148993E11,3.3251394E11,1.7587136E11,1.333558E11,1.6041325E11,2.1480289E11,3.2749839E12,9.036234E12,0E0,0E0,0E0,0E0,0E0,0E0,0E0,0E0,0E0,0E0,0E0,0E0,0E0,0E0,0E0,0E0,0E0,0E0,0E0,0E0,0E0,0E0,0E0,0E0,0E0,0E0,0E0,0E0],"parents":[2147483647,0,0,1,1,2,2,3,3,4,4,5,5,6,6,7,7,8,8,9,9,10,10,11,11,12,12,13,13,15,15,16,16,17,17,18,18,19,19,20,20,21,21,22,22,23,23,24,24,25,25,26,26,27,27,28,28],"right_children":[2,4,6,8,10,12,14,16,18,20,22,24,26,28,-1,30,32,34,36,38,40,42,44,46,48,50,52,54,56,-1,-1,-1,-1,-1,-1,-1,-1,-1,-1,-1,-1,-1,-1,-1,-1,-1,-1,-1,-1,-1,-1,-1,-1,-1,-1,-1,-1],"split_conditions":[1.595E6,7.299E5,4.498E6,4.499E5,1.05E6,2.485E6,2.1E7,2.969E5,5.95E5,8.88E5,1.355E6,1.995E6,3E6,7.661E3,3.2484434E5,1.449E5,3.799E5,5.29E5,6.6857E5,8.1E5,1.05E6,1.209E6,1E0,2.092E3,7E0,1.885E3,2.021E3,1.2E1,6E0,-1.2496648E4,-8.02505E3,-6.3951274E3,-5.3011763E3,-4.1452056E3,-3.0614639E3,-2.0531763E3,-9.67344E2,1.796823E2,1.3601263E3,3.2345442E3,3.6511526E2,5.531284E3,7.531817E3,-1.8977924E4,1.057761E4,1.1536005E4,1.538273E4,2.09711E4,6.1159556E3,2.015106E4,2.9601564E4,3.8181453E4,4.7999664E4,5.062719E4,9.789138E4,3.9335668E4,1.3182952E5],"split_indices":[0,0,0,0,0,0,0,0,0,0,0,0,0,4,0,0,0,0,0,0,1,0,3,4,3,5,5,7,2,0,0,0,0,0,0,0,0,0,0,0,0,0,0,0,0,0,0,0,0,0,0,0,0,0,0,0,0],"split_type":[0,0,0,0,0,0,0,0,0,0,0,0,0,0,0,0,0,0,0,0,0,0,0,0,0,0,0,0,0,0,0,0,0,0,0,0,0,0,0,0,0,0,0,0,0,0,0,0,0,0,0,0,0,0,0,0,0],"sum_hessian":[1.7325E4,1.6168E4,1.157E3,1.1145E4,5.023E3,1.088E3,6.9E1,4.565E3,6.58E3,3.382E3,1.641E3,7.47E2,3.41E2,6.8E1,1E0,1.15E3,3.415E3,3.556E3,3.024E3,2.118E3,1.264E3,1.24E3,4.01E2,4.68E2,2.79E2,2.04E2,1.37E2,3.7E1,3.1E1,6.8E1,1.082E3,1.673E3,1.742E3,2.026E3,1.53E3,1.758E3,1.266E3,1.301E3,8.17E2,1.169E3,9.5E1,7.66E2,4.74E2,1E0,4E2,8.9E1,3.79E2,2.75E2,4E0,1.9E1,1.85E2,9.8E1,3.9E1,2.2E1,1.5E1,8E0,2.3E1],"tree_param":{"num_deleted":"0","num_feature":"10","num_nodes":"57","size_leaf_vector":"1"}},{"base_weights":[7.9302094E2,-2.2299672E4,3.988859E5,-5.305997E4,5.9348426E4,3.2520278E5,1.3205422E6,-7.799911E4,-2.5679996E4,3.2966844E4,1.20141836E5,2.6855578E5,5.106897E5,1.2098772E6,3.134748E5,-9.746634E4,-6.487268E4,-3.8590008E4,-1.2738148E4,1.889437E4,5.6813105E4,9.7759266E4,1.6105006E5,2.3370431E5,3.482178E5,4.6091684E5,6.041891E5,1.2743161E6,1.301966E5,-8.396366E3,-6.3127324E3,-5.164961E3,-4.0554724E3,-3.1651648E3,-2.3307297E3,-1.2871257E3,-2.0619357E2,8.158023E2,1.9521464E3,4.0279507E3,-5.0044067E3,7.103017E3,2.7413967E3,-1.8313695E4,1.1373926E4,1.4698585E4,1.8291521E4,2.5031244E4,1.3684472E4,2.2573266E4,3.309145E4,4.911069E4,3.660587E4,7.035074E4,1.2535024E5,2.2900406E4,-7.7108037E3],"categories":[],"categories_nodes":[],"categories_segments":[],"categories_sizes":[],"default_left":[0,0,0,0,0,0,0,0,0,0,0,0,0,0,0,0,0,0,0,0,0,0,0,0,0,0,0,0,0,0,0,0,0,0,0,0,0,0,0,0,0,0,0,0,0,0,0,0,0,0,0,0,0,0,0,0,0],"id":22,"left_children":[1,3,5,7,9,11,13,15,17,19,21,23,25,27,-1,29,31,33,35,37,39,41,43,45,47,49,51,53,55,-1,-1,-1,-1,-1,-1,-1,-1,-1,-1,-1,-1,-1,-1,-1,-1,-1,-1,-1,-1,-1,-1,-1,-1,-1,-1,-1,-1],"loss_changes":[1.5928745E14,4.1134307E13,6.4085543E13,8.120978E12,7.1843887E12,9.119759E12,1.9042954E13,1.5843816E12,9.471829E11,1.0482722E12,1.2258525E12,1.798203E12,6.755346E11,4.6346556E12,0E0,3.9942147E11,2.2579197E11,9.808799E10,1.5672708E11,1.27817155E11,1.1261995E11,1.8723792E11,3.323514E11,2.5553797E11,2.2206743E11,7.33395E10,1.7119471E11,7.239847E12,2.7272492E11,0E0,0E0,0E0,0E0,0E0,0E0,0E0,0E0,0E0,0E0,0E0,0E0,0E0,0E0,0E0,0E0,0E0,0E0,0E0,0E0,0E0,0E0,0E0,0E0,0E0,0E0,0E0,0E0],"parents":[2147483647,0,0,1,1,2,2,3,3,4,4,5,5,6,6,7,7,8,8,9,9,10,10,11,11,12,12,13,13,15,15,16,16,17,17,18,18,19,19,20,20,21,21,22,22,23,23,24,24,25,25,26,26,27,27,28,28],"right_children":[2,4,6,8,10,12,14,16,18,20,22,24,26,28,-1,30,32,34,36,38,40,42,44,46,48,50,52,54,56,-1,-1,-1,-1,-1,-1,-1,-1,-1,-1,-1,-1,-1,-1,-1,-1,-1,-1,-1,-1,-1,-1,-1,-1,-1,-1,-1,-1],"split_conditions":[1.7E6,7.79E5,4.75E6,5.05E5,1.169E6,2.849E6,2.1E7,3.654E5,6.29E5,9.499E5,1.425E6,2.3E6,3.6E6,9E0,3.134748E5,2.59E5,4.29889E5,5.69E5,7E5,8.599E5,8E0,7E0,1E0,1.995E6,2.9E6,2.9E6,5E0,6E0,1.2E1,-8.396366E3,-6.3127324E3,-5.164961E3,-4.0554724E3,-3.1651648E3,-2.3307297E3,-1.2871257E3,-2.0619357E2,8.158023E2,1.9521464E3,4.0279507E3,-5.0044067E3,7.103017E3,2.7413967E3,-1.8313695E4,1.1373926E4,1.4698585E4,1.8291521E4,2.5031244E4,1.3684472E4,2.2573266E4,3.309145E4,4.911069E4,3.660587E4,7.035074E4,1.2535024E5,2.2900406E4,-7.7108037E3],"split_indices":[0,0,1,0,0,0,0,0,0,0,0,0,1,3,0,0,0,0,0,0,3,2,3,0,1,1,2,3,7,0,0,0,0,0,0,0,0,0,0,0,0,0,0,0,0,0,0,0,0,0,0,0,0,0,0,0,0],"split_type":[0,0,0,0,0,0,0,0,0,0,0,0,0,0,0,0,0,0,0,0,0,0,0,0,0,0,0,0,0,0,0,0,0,0,0,0,0,0,0,0,0,0,0,0,0,0,0,0,0,0,0,0,0,0,0,0,0],"sum_hessian":[1.7325E4,1.6376E4,9.49E2,1.1895E4,4.481E3,8.8E2,6.9E1,6.224E3,5.671E3,3.126E3,1.355E3,6.76E2,2.04E2,6.8E1,1E0,2.504E3,3.72E3,2.838E3,2.833E3,1.967E3,1.159E3,8.78E2,4.77E2,4.73E2,2.03E2,1.37E2,6.7E1,6.4E1,4E0,6.09E2,1.895E3,1.624E3,2.096E3,1.257E3,1.581E3,1.796E3,1.037E3,1.091E3,8.76E2,1.153E3,6E0,8.25E2,5.3E1,1E0,4.76E2,2.59E2,2.14E2,1.9E2,1.3E1,1.3E1,1.24E2,2.7E1,4E1,4.4E1,2E1,2E0,2E0],"tree_param":{"num_deleted":"0","num_feature":"10","num_nodes":"57","size_leaf_vector":"1"}},{"base_weights":[7.785671E2,-1.9926443E4,3.8636456E5,-4.9348363E4,5.7018613E4,3.128351E5,1.2358875E6,-7.533195E4,-2.655062E4,3.0659742E4,1.1490138E5,2.5768836E5,4.764715E5,1.1285388E6,3.025032E5,-9.987855E4,-6.717091E4,-3.9312977E4,-1.2796876E4,1.7573174E4,5.2835348E4,9.0927336E4,1.5335695E5,2.2388478E5,3.2403238E5,4.2426472E5,5.624528E5,1.1887418E6,2.9828466E5,-9.908992E3,-6.673658E3,-5.279022E3,-4.1029385E3,-3.2403389E3,-2.355459E3,-1.3282598E3,-2.9035526E2,5.500956E2,1.6457076E3,1.9176389E3,3.944998E3,6.490714E3,-1.3139059E3,-1.7672717E4,1.0819693E4,1.4100407E4,1.701707E4,2.3433453E4,1.3618134E4,2.9879768E4,3.0688875E3,3.438601E4,4.63344E4,6.214507E4,1.0977963E5,3.683311E4,-7.3509565E3],"categories":[],"categories_nodes":[],"categories_segments":[],"categories_sizes":[],"default_left":[0,0,0,0,0,0,0,0,0,0,0,0,0,0,0,0,0,0,0,0,0,0,0,0,0,0,0,0,0,0,0,0,0,0,0,0,0,0,0,0,0,0,0,0,0,0,0,0,0,0,0,0,0,0,0,0,0],"id":23,"left_children":[1,3,5,7,9,11,13,15,17,19,21,23,25,27,-1,29,31,33,35,37,39,41,43,45,47,49,51,53,55,-1,-1,-1,-1,-1,-1,-1,-1,-1,-1,-1,-1,-1,-1,-1,-1,-1,-1,-1,-1,-1,-1,-1,-1,-1,-1,-1,-1],"loss_changes":[1.3833089E14,3.7229913E13,5.4769918E13,7.044801E12,6.936998E12,7.2227676E12,1.8309412E13,1.1069062E12,1.112007E12,9.0653485E11,1.2979693E12,1.2977219E12,6.770907E11,3.094289E12,0E0,2.4860793E11,2.9010533E11,1.2833784E11,1.6300635E11,1.1332026E11,1.0238689E11,1.7502935E11,3.0666444E11,1.2704547E11,2.1834498E11,1.1031649E11,1.9909522E11,5.9180455E12,6.067332E11,0E0,0E0,0E0,0E0,0E0,0E0,0E0,0E0,0E0,0E0,0E0,0E0,0E0,0E0,0E0,0E0,0E0,0E0,0E0,0E0,0E0,0E0,0E0,0E0,0E0,0E0,0E0,0E0],"parents":[2147483647,0,0,1,1,2,2,3,3,4,4,5,5,6,6,7,7,8,8,9,9,10,10,11,11,12,12,13,13,15,15,16,16,17,17,18,18,19,19,20,20,21,21,22,22,23,23,24,24,25,25,26,26,27,27,28,28],"right_children":[2,4,6,8,10,12,14,16,18,20,22,24,26,28,-1,30,32,34,36,38,40,42,44,46,48,50,52,54,56,-1,-1,-1,-1,-1,-1,-1,-1,-1,-1,-1,-1,-1,-1,-1,-1,-1,-1,-1,-1,-1,-1,-1,-1,-1,-1,-1,-1],"split_conditions":[1.79E6,7.79E5,4.498E6,4.899E5,1.169E6,2.849E6,2.1E7,3E5,6.199E5,9.499E5,1.425E6,2.3E6,3.495E6,9E0,3.025032E5,1.75E5,3.99999E5,5.499E5,6.999E5,8.39E5,3E0,1.6E6,1E0,1.995E6,7E0,4.75E6,2.013E3,7.661E3,1.2E1,-9.908992E3,-6.673658E3,-5.279022E3,-4.1029385E3,-3.2403389E3,-2.355459E3,-1.3282598E3,-2.9035526E2,5.500956E2,1.6457076E3,1.9176389E3,3.944998E3,6.490714E3,-1.3139059E3,-1.7672717E4,1.0819693E4,1.4100407E4,1.701707E4,2.3433453E4,1.3618134E4,2.9879768E4,3.0688875E3,3.438601E4,4.63344E4,6.214507E4,1.0977963E5,3.683311E4,-7.3509565E3],"split_indices":[0,0,0,0,0,0,0,0,0,0,0,0,0,3,0,0,0,0,0,0,2,1,3,0,2,1,5,4,7,0,0,0,0,0,0,0,0,0,0,0,0,0,0,0,0,0,0,0,0,0,0,0,0,0,0,0,0],"split_type":[0,0,0,0,0,0,0,0,0,0,0,0,0,0,0,0,0,0,0,0,0,0,0,0,0,0,0,0,0,0,0,0,0,0,0,0,0,0,0,0,0,0,0,0,0,0,0,0,0,0,0,0,0,0,0,0,0],"sum_hessian":[1.7325E4,1.6443E4,8.82E2,1.1895E4,4.548E3,8.13E2,6.9E1,5.558E3,6.337E3,3.126E3,1.422E3,6.1E2,2.03E2,6.8E1,1E0,1.384E3,4.174E3,3.286E3,3.051E3,1.967E3,1.159E3,8.78E2,5.44E2,4.07E2,2.03E2,1.3E2,7.3E1,6.3E1,5E0,1.33E2,1.251E3,2.122E3,2.052E3,1.469E3,1.817E3,1.779E3,1.272E3,7.47E2,1.22E3,1.42E2,1.017E3,8.64E2,1.4E1,1E0,5.43E2,1.93E2,2.14E2,1.86E2,1.7E1,1.29E2,1E0,4.6E1,2.7E1,3.7E1,2.6E1,3E0,2E0],"tree_param":{"num_deleted":"0","num_feature":"10","num_nodes":"57","size_leaf_vector":"1"}},{"base_weights":[7.6209283E2,-2.0317584E4,3.298711E5,-4.788017E4,4.423497E4,2.699537E5,1.1588662E6,-7.244944E4,-2.8784969E4,1.9992959E4,9.017199E4,2.13044E5,4.1383312E5,1.0547855E6,2.9191556E5,-9.812662E4,-6.60136E4,-4.009263E4,-1.6172551E4,9.29134E3,3.6067477E4,7.40923E4,1.2629354E5,1.8724219E5,2.7115778E5,3.759804E5,5.2353212E5,1.1110548E6,1.12328E5,-1.0371755E4,-6.601586E3,-5.1663813E3,-4.1288027E3,-3.2443716E3,-2.4114502E3,-1.5887156E3,-6.827455E2,3.3453143E2,1.2167089E3,2.735544E3,-1.8415395E2,2.2138022E3,5.5061846E3,-1.7054172E4,8.923782E3,1.1961574E4,1.4696492E4,1.9344002E4,3.2350544E3,2.9621887E4,2.4150896E4,4.3068637E4,3.1368076E4,6.0861945E4,1.1031007E5,2.0112844E4,-7.00791E3],"categories":[],"categories_nodes":[],"categories_segments":[],"categories_sizes":[],"default_left":[0,0,0,0,0,0,0,0,0,0,0,0,0,0,0,0,0,0,0,0,0,0,0,0,0,0,0,0,0,0,0,0,0,0,0,0,0,0,0,0,0,0,0,0,0,0,0,0,0,0,0,0,0,0,0,0,0],"id":24,"left_children":[1,3,5,7,9,11,13,15,17,19,21,23,25,27,-1,29,31,33,35,37,39,41,43,45,47,49,51,53,55,-1,-1,-1,-1,-1,-1,-1,-1,-1,-1,-1,-1,-1,-1,-1,-1,-1,-1,-1,-1,-1,-1,-1,-1,-1,-1,-1,-1],"loss_changes":[1.2020602E14,2.897519E13,5.1494234E13,5.351911E12,5.4247985E12,7.8870783E12,1.7541024E13,8.1813884E11,9.1538063E11,5.4859137E11,9.681691E11,9.9883785E11,9.4507316E11,3.5343722E12,0E0,1.7671442E11,2.143929E11,1.1793544E11,1.269916E11,6.989824E10,1.487021E11,2.2386993E11,2.584677E11,1.4544273E11,2.3566012E11,1.5795959E11,1.9473315E11,5.9290765E12,2.1464921E11,0E0,0E0,0E0,0E0,0E0,0E0,0E0,0E0,0E0,0E0,0E0,0E0,0E0,0E0,0E0,0E0,0E0,0E0,0E0,0E0,0E0,0E0,0E0,0E0,0E0,0E0,0E0,0E0],"parents":[2147483647,0,0,1,1,2,2,3,3,4,4,5,5,6,6,7,7,8,8,9,9,10,10,11,11,12,12,13,13,15,15,16,16,17,17,18,18,19,19,20,20,21,21,22,22,23,23,24,24,25,25,26,26,27,27,28,28],"right_children":[2,4,6,8,10,12,14,16,18,20,22,24,26,28,-1,30,32,34,36,38,40,42,44,46,48,50,52,54,56,-1,-1,-1,-1,-1,-1,-1,-1,-1,-1,-1,-1,-1,-1,-1,-1,-1,-1,-1,-1,-1,-1,-1,-1,-1,-1,-1,-1],"split_conditions":[1.65E6,7.499E5,4.75E6,4.65E5,1.075E6,2.599E6,2.1E7,2.89E5,5.999E5,8.98E5,1.355E6,2.195E6,3.6E6,9E0,2.9191556E5,1.449E5,3.8E5,5.29E5,6.6857E5,8.39E5,1.09E6,1.9E3,1E0,1.899E6,2.9E6,9E0,5E0,6E0,1.2E1,-1.0371755E4,-6.601586E3,-5.1663813E3,-4.1288027E3,-3.2443716E3,-2.4114502E3,-1.5887156E3,-6.827455E2,3.3453143E2,1.2167089E3,2.735544E3,-1.8415395E2,2.2138022E3,5.5061846E3,-1.7054172E4,8.923782E3,1.1961574E4,1.4696492E4,1.9344002E4,3.2350544E3,2.9621887E4,2.4150896E4,4.3068637E4,3.1368076E4,6.0861945E4,1.1031007E5,2.0112844E4,-7.00791E3],"split_indices":[0,0,1,0,0,0,0,0,0,0,0,0,1,3,0,0,0,0,0,0,1,5,3,0,1,7,2,3,7,0,0,0,0,0,0,0,0,0,0,0,0,0,0,0,0,0,0,0,0,0,0,0,0,0,0,0,0],"split_type":[0,0,0,0,0,0,0,0,0,0,0,0,0,0,0,0,0,0,0,0,0,0,0,0,0,0,0,0,0,0,0,0,0,0,0,0,0,0,0,0,0,0,0,0,0,0,0,0,0,0,0,0,0,0,0,0,0],"sum_hessian":[1.7325E4,1.6283E4,1.042E3,1.1411E4,4.872E3,9.73E2,6.9E1,4.989E3,6.422E3,3.19E3,1.682E3,6.99E2,2.74E2,6.8E1,1E0,9.97E2,3.992E3,3.385E3,3.037E3,1.916E3,1.274E3,1.166E3,5.16E2,4.87E2,2.12E2,2.07E2,6.7E1,6.4E1,4E0,6.8E1,9.29E2,1.889E3,2.103E3,1.602E3,1.783E3,1.505E3,1.532E3,1.231E3,6.85E2,1.182E3,9.2E1,1.14E2,1.052E3,1E0,5.15E2,2.88E2,1.99E2,2.07E2,5E0,7.7E1,1.3E2,2.7E1,4E1,4.4E1,2E1,2E0,2E0],"tree_param":{"num_deleted":"0","num_feature":"10","num_nodes":"57","size_leaf_vector":"1"}},{"base_weights":[7.4470886E2,-1.7952744E4,3.2306834E5,-4.2983945E4,4.7002652E4,2.6219812E5,1.0845484E6,-6.5377207E4,-2.3445531E4,2.435361E4,9.349884E4,2.0598111E5,3.8533094E5,9.836211E5,2.8169853E5,-8.393491E4,-5.7224793E4,-3.4164914E4,-1.1422447E4,1.3079412E4,4.1369613E4,7.641349E4,1.29582805E5,1.8049192E5,2.5228273E5,3.231379E5,4.4385697E5,1.03591425E6,1.07086E5,-8.62795E3,-5.6330684E3,-4.437696E3,-3.4793796E3,-2.7263408E3,-1.9267133E3,-1.2350823E3,-3.649838E2,1.0445867E3,-8.233893E2,3.151762E3,8.14042E2,3.723189E3,5.820537E3,-1.6457275E4,9.158815E3,1.3126349E4,9.422197E3,1.7996432E4,3.0463462E3,2.4112246E4,1.1412377E4,2.7721465E4,3.415857E4,5.6696277E4,1.0295607E5,1.9174236E4,-6.68087E3],"categories":[],"categories_nodes":[],"categories_segments":[],"categories_sizes":[],"default_left":[0,0,0,0,0,0,0,0,0,0,0,0,0,0,0,0,0,0,0,0,0,0,0,0,0,0,0,0,0,0,0,0,0,0,0,0,0,0,0,0,0,0,0,0,0,0,0,0,0,0,0,0,0,0,0,0,0],"id":25,"left_children":[1,3,5,7,9,11,13,15,17,19,21,23,25,27,-1,29,31,33,35,37,39,41,43,45,47,49,51,53,55,-1,-1,-1,-1,-1,-1,-1,-1,-1,-1,-1,-1,-1,-1,-1,-1,-1,-1,-1,-1,-1,-1,-1,-1,-1,-1,-1,-1],"loss_changes":[1.0442322E14,2.6629573E13,4.3749527E13,5.170933E12,4.7956214E12,6.0190527E12,1.6810468E13,8.2850297E11,8.1348683E11,5.874538E11,9.099249E11,6.708391E11,8.575506E11,3.0518091E12,0E0,2.1867738E11,1.7456484E11,1.0494306E11,1.1493638E11,8.465872E10,1.3222085E11,1.5439338E11,2.4995588E11,1.0213864E11,2.0265828E11,4.1153987E11,1.0013062E11,5.196294E12,1.9508255E11,0E0,0E0,0E0,0E0,0E0,0E0,0E0,0E0,0E0,0E0,0E0,0E0,0E0,0E0,0E0,0E0,0E0,0E0,0E0,0E0,0E0,0E0,0E0,0E0,0E0,0E0,0E0,0E0],"parents":[2147483647,0,0,1,1,2,2,3,3,4,4,5,5,6,6,7,7,8,8,9,9,10,10,11,11,12,12,13,13,15,15,16,16,17,17,18,18,19,19,20,20,21,21,22,22,23,23,24,24,25,25,26,26,27,27,28,28],"right_children":[2,4,6,8,10,12,14,16,18,20,22,24,26,28,-1,30,32,34,36,38,40,42,44,46,48,50,52,54,56,-1,-1,-1,-1,-1,-1,-1,-1,-1,-1,-1,-1,-1,-1,-1,-1,-1,-1,-1,-1,-1,-1,-1,-1,-1,-1,-1,-1],"split_conditions":[1.7E6,7.75E5,4.75E6,4.89E5,1.13E6,2.599E6,2.1E7,3.25E5,6.199E5,9.25E5,1.425E6,2.195E6,3E6,9E0,2.8169853E5,1.75E5,4.199E5,5.65E5,6.899E5,9.24999E5,1.125E6,1.921E3,1E0,2.195E6,2.9E6,2.024E3,3.6E6,6E0,1.2E1,-8.62795E3,-5.6330684E3,-4.437696E3,-3.4793796E3,-2.7263408E3,-1.9267133E3,-1.2350823E3,-3.649838E2,1.0445867E3,-8.233893E2,3.151762E3,8.14042E2,3.723189E3,5.820537E3,-1.6457275E4,9.158815E3,1.3126349E4,9.422197E3,1.7996432E4,3.0463462E3,2.4112246E4,1.1412377E4,2.7721465E4,3.415857E4,5.6696277E4,1.0295607E5,1.9174236E4,-6.68087E3],"split_indices":[0,0,1,0,0,0,0,0,0,0,0,0,0,3,0,0,0,0,0,1,1,4,3,1,1,5,1,3,7,0,0,0,0,0,0,0,0,0,0,0,0,0,0,0,0,0,0,0,0,0,0,0,0,0,0,0,0],"split_type":[0,0,0,0,0,0,0,0,0,0,0,0,0,0,0,0,0,0,0,0,0,0,0,0,0,0,0,0,0,0,0,0,0,0,0,0,0,0,0,0,0,0,0,0,0,0,0,0,0,0,0,0,0,0,0,0,0],"sum_hessian":[1.7325E4,1.6376E4,9.49E2,1.1821E4,4.555E3,8.8E2,6.9E1,5.507E3,6.314E3,3.064E3,1.491E3,6.06E2,2.74E2,6.8E1,1E0,1.678E3,3.829E3,3.337E3,2.977E3,1.844E3,1.22E3,1.014E3,4.77E2,3.94E2,2.12E2,1.36E2,1.38E2,6.4E1,4E0,1.33E2,1.545E3,2.099E3,1.73E3,1.937E3,1.4E3,1.486E3,1.491E3,1.717E3,1.27E2,1.086E3,1.34E2,2.3E2,7.84E2,1E0,4.76E2,3.39E2,5.5E1,2.07E2,5E0,1.19E2,1.7E1,7.1E1,6.7E1,4.4E1,2E1,2E0,2E0],"tree_param":{"num_deleted":"0","num_feature":"10","num_nodes":"57","size_leaf_vector":"1"}},{"base_weights":[7.2563525E2,-1.6046334E4,3.1306712E5,-3.9015547E4,4.7822324E4,2.5216669E5,1.0167797E6,-5.8233332E4,-1.8209686E4,2.8995477E4,1.0012301E5,2.072369E5,3.8549972E5,9.189529E5,2.7183906E5,-7.394174E4,-4.8735746E4,-2.7689307E4,-7.522831E3,1.700365E4,5.0328445E4,8.3000336E4,1.3028997E5,1.7982895E5,2.6103692E5,3.4348497E5,4.5466772E5,9.779918E5,1.3604542E5,-7.1630566E3,-4.91558E3,-3.892576E3,-3.0170862E3,-1.838599E3,-3.3630574E3,-8.926425E2,-8.348659E1,1.3026582E3,-8.429698E2,3.8353662E3,4.0726035E2,5.861073E3,-1.5881271E4,6.440668E3,9.801172E3,1.2965471E4,8.0548066E3,1.9595703E4,1.3015882E4,2.4246639E4,-1.1530663E3,2.7147537E4,3.8544445E4,5.0430156E4,8.721159E4,4.7520043E4,-4.4313695E4],"categories":[],"categories_nodes":[],"categories_segments":[],"categories_sizes":[],"default_left":[0,0,0,0,0,0,0,0,0,0,0,0,0,0,0,0,0,0,0,0,0,0,0,0,0,0,0,0,0,0,0,0,0,0,0,0,0,0,0,0,0,0,0,0,0,0,0,0,0,0,0,0,0,0,0,0,0],"id":26,"left_children":[1,3,5,7,9,11,13,15,17,19,21,23,25,27,-1,29,31,33,35,37,39,41,43,45,47,49,51,53,55,-1,-1,-1,-1,-1,-1,-1,-1,-1,-1,-1,-1,-1,-1,-1,-1,-1,-1,-1,-1,-1,-1,-1,-1,-1,-1,-1,-1],"loss_changes":[9.076868E13,2.4125423E13,3.7585812E13,4.8350343E12,4.2803554E12,4.796476E12,1.6061693E13,9.343672E11,5.88286E11,8.1777184E11,5.8372234E11,8.540064E11,4.36669E11,3.0562677E12,0E0,2.4271808E11,1.4943676E11,8.792808E10,9.041876E10,9.583762E10,2.28302E11,1.8554867E11,1.4164007E11,1.21156665E11,2.3751295E11,1.4224772E11,2.6116148E11,3.518266E12,2.934609E12,0E0,0E0,0E0,0E0,0E0,0E0,0E0,0E0,0E0,0E0,0E0,0E0,0E0,0E0,0E0,0E0,0E0,0E0,0E0,0E0,0E0,0E0,0E0,0E0,0E0,0E0,0E0,0E0],"parents":[2147483647,0,0,1,1,2,2,3,3,4,4,5,5,6,6,7,7,8,8,9,9,10,10,11,11,12,12,13,13,15,15,16,16,17,17,18,18,19,19,20,20,21,21,22,22,23,23,24,24,25,25,26,26,27,27,28,28],"right_children":[2,4,6,8,10,12,14,16,18,20,22,24,26,28,-1,30,32,34,36,38,40,42,44,46,48,50,52,54,56,-1,-1,-1,-1,-1,-1,-1,-1,-1,-1,-1,-1,-1,-1,-1,-1,-1,-1,-1,-1,-1,-1,-1,-1,-1,-1,-1,-1],"split_conditions":[1.79E6,7.99E5,4.498E6,5.149E5,1.209E6,2.849E6,2.1E7,3.59E5,6.49E5,9.86E5,1.499E6,2.3E6,3.495E6,2.024E3,2.7183906E5,2.15E5,4.29889E5,6.49E5,7E5,9.899E5,1.249E6,1.88E6,2.16E3,2.395E6,5.471E3,4.75E6,2.013E3,7.661E3,9E0,-7.1630566E3,-4.91558E3,-3.892576E3,-3.0170862E3,-1.838599E3,-3.3630574E3,-8.926425E2,-8.348659E1,1.3026582E3,-8.429698E2,3.8353662E3,4.0726035E2,5.861073E3,-1.5881271E4,6.440668E3,9.801172E3,1.2965471E4,8.0548066E3,1.9595703E4,1.3015882E4,2.4246639E4,-1.1530663E3,2.7147537E4,3.8544445E4,5.0430156E4,8.721159E4,4.7520043E4,-4.4313695E4],"split_indices":[0,0,0,0,0,0,0,0,0,0,0,0,0,5,0,0,0,1,0,1,1,1,4,1,4,1,5,4,7,0,0,0,0,0,0,0,0,0,0,0,0,0,0,0,0,0,0,0,0,0,0,0,0,0,0,0,0],"split_type":[0,0,0,0,0,0,0,0,0,0,0,0,0,0,0,0,0,0,0,0,0,0,0,0,0,0,0,0,0,0,0,0,0,0,0,0,0,0,0,0,0,0,0,0,0,0,0,0,0,0,0,0,0,0,0,0,0],"sum_hessian":[1.7325E4,1.6443E4,8.82E2,1.2094E4,4.349E3,8.13E2,6.9E1,6.286E3,5.808E3,3.199E3,1.15E3,6.1E2,2.03E2,6.8E1,1E0,2.366E3,3.92E3,3.077E3,2.731E3,2.049E3,1.15E3,7.36E2,4.14E2,4.07E2,2.03E2,1.3E2,7.3E1,6.3E1,5E0,2.71E2,2.095E3,1.762E3,2.158E3,2.878E3,1.99E2,1.495E3,1.236E3,1.942E3,1.07E2,1.045E3,1.05E2,7.35E2,1E0,8.6E1,3.28E2,3.74E2,3.3E1,1.6E2,4.3E1,1.29E2,1E0,4.6E1,2.7E1,3.4E1,2.9E1,3E0,2E0],"tree_param":{"num_deleted":"0","num_feature":"10","num_nodes":"57","size_leaf_vector":"1"}},{"base_weights":[7.060548E2,-1.369384E4,3.1677803E5,-3.44631E4,5.3125355E4,2.5141319E5,9.528282E5,-5.325111E4,-1.3993002E4,3.285152E4,1.0246981E5,2.0579373E5,3.5744816E5,8.5801425E5,2.623247E5,-6.78729E4,-4.3997973E4,-2.316131E4,-2.624955E3,1.9473514E4,4.8450984E4,8.047932E4,1.2666099E5,1.7790698E5,2.4292416E5,3.2331422E5,4.2146338E5,6.46953E5,1.1108288E6,-5.807527E3,-4.3125835E3,-3.517404E3,-2.6912832E3,-1.9486691E3,-1.2475444E3,-5.699653E2,1.9693512E2,1.5198617E3,-7.1511017E2,1.677603E3,3.7150522E3,5.693926E3,-1.5325428E4,5.950401E3,9.559934E3,1.2899917E4,8.1601445E3,1.8232523E4,1.2125471E4,2.6601768E4,2.0289348E4,3.5656527E4,2.4580072E4,7.5476305E4,1.7155396E4,8.8698016E4,1.9214977E4],"categories":[],"categories_nodes":[],"categories_segments":[],"categories_sizes":[],"default_left":[0,0,0,0,0,0,0,0,0,0,0,0,0,0,0,0,0,0,0,0,0,0,0,0,0,0,0,0,0,0,0,0,0,0,0,0,0,0,0,0,0,0,0,0,0,0,0,0,0,0,0,0,0,0,0,0,0],"id":27,"left_children":[1,3,5,7,9,11,13,15,17,19,21,23,25,27,-1,29,31,33,35,37,39,41,43,45,47,49,51,53,55,-1,-1,-1,-1,-1,-1,-1,-1,-1,-1,-1,-1,-1,-1,-1,-1,-1,-1,-1,-1,-1,-1,-1,-1,-1,-1,-1,-1],"loss_changes":[7.886195E13,2.3000208E13,3.114982E13,4.8616566E12,3.928211E12,3.2447975E12,1.5332735E13,8.8889675E11,6.307136E11,5.8067465E11,5.983867E11,4.5586632E11,3.1167873E11,2.9631416E12,0E0,2.362578E11,1.382474E11,8.3155616E10,8.112746E10,1.0005748E11,1.4424002E11,1.7326748E11,2.1253272E11,8.765047E10,2.0429826E11,1.517625E11,2.4152375E11,6.668592E12,3.5733708E12,0E0,0E0,0E0,0E0,0E0,0E0,0E0,0E0,0E0,0E0,0E0,0E0,0E0,0E0,0E0,0E0,0E0,0E0,0E0,0E0,0E0,0E0,0E0,0E0,0E0,0E0,0E0,0E0],"parents":[2147483647,0,0,1,1,2,2,3,3,4,4,5,5,6,6,7,7,8,8,9,9,10,10,11,11,12,12,13,13,15,15,16,16,17,17,18,18,19,19,20,20,21,21,22,22,23,23,24,24,25,25,26,26,27,27,28,28],"right_children":[2,4,6,8,10,12,14,16,18,20,22,24,26,28,-1,30,32,34,36,38,40,42,44,46,48,50,52,54,56,-1,-1,-1,-1,-1,-1,-1,-1,-1,-1,-1,-1,-1,-1,-1,-1,-1,-1,-1,-1,-1,-1,-1,-1,-1,-1,-1,-1],"split_conditions":[1.899E6,8.39E5,4.75E6,5.29E5,1.259E6,2.849E6,2.1E7,3.699E5,6.7E5,9.86E5,1.499E6,2.3E6,3.6E6,2.007E3,2.623247E5,2.699E5,4.45E5,5.999E5,7.399E5,9.899E5,1.902E3,1.88E6,2.16E3,2.395E6,5.471E3,1.945E3,5E0,1.902E3,2.024E3,-5.807527E3,-4.3125835E3,-3.517404E3,-2.6912832E3,-1.9486691E3,-1.2475444E3,-5.699653E2,1.9693512E2,1.5198617E3,-7.1511017E2,1.677603E3,3.7150522E3,5.693926E3,-1.5325428E4,5.950401E3,9.559934E3,1.2899917E4,8.1601445E3,1.8232523E4,1.2125471E4,2.6601768E4,2.0289348E4,3.5656527E4,2.4580072E4,7.5476305E4,1.7155396E4,8.8698016E4,1.9214977E4],"split_indices":[0,0,1,0,0,0,0,0,0,0,0,0,1,5,0,0,0,0,0,1,5,1,4,1,4,5,2,5,5,0,0,0,0,0,0,0,0,0,0,0,0,0,0,0,0,0,0,0,0,0,0,0,0,0,0,0,0],"split_type":[0,0,0,0,0,0,0,0,0,0,0,0,0,0,0,0,0,0,0,0,0,0,0,0,0,0,0,0,0,0,0,0,0,0,0,0,0,0,0,0,0,0,0,0,0,0,0,0,0,0,0,0,0,0,0,0,0],"sum_hessian":[1.7325E4,1.6571E4,7.54E2,1.2642E4,3.929E3,6.85E2,6.9E1,6.591E3,6.051E3,2.786E3,1.143E3,4.81E2,2.04E2,6.8E1,1E0,2.552E3,4.039E3,3.349E3,2.702E3,1.501E3,1.285E3,6.01E2,5.42E2,2.78E2,2.03E2,1.37E2,6.7E1,3.9E1,2.9E1,7.45E2,1.807E3,1.896E3,2.143E3,1.783E3,1.566E3,1.341E3,1.361E3,1.396E3,1.05E2,2.05E2,1.08E3,6E2,1E0,1.06E2,4.36E2,2.5E2,2.8E1,1.6E2,4.3E1,4.7E1,9E1,2.7E1,4E1,1.8E1,2.1E1,2.4E1,5E0],"tree_param":{"num_deleted":"0","num_feature":"10","num_nodes":"57","size_leaf_vector":"1"}},{"base_weights":[6.9205554E2,-1.3305183E4,2.835485E5,-3.2675719E4,4.6025125E4,2.2615927E5,8.9274256E5,-4.9866746E4,-1.405239E4,2.9042057E4,9.280374E4,1.8550092E5,3.3294944E5,8.008596E5,2.5314331E5,-6.3989617E4,-4.171314E4,-2.2317627E4,-3.7683118E3,1.893364E4,4.8448305E4,7.482982E4,1.15106234E5,1.6068789E5,2.260683E5,3.010221E5,3.928468E5,8.4981356E5,4.2867E3,-7.1273354E3,-4.3184316E3,-3.3050645E3,-2.5221057E3,-1.4783328E3,-2.9728535E3,-5.9976324E2,8.81432E1,9.035195E2,1.9025043E3,1.3274357E3,3.8021255E3,5.2960176E3,-1.4789038E4,5.3911997E3,8.725583E3,1.1471443E4,3.5065337E3,1.6495836E4,7.974101E3,2.477844E4,1.8884705E4,3.3249715E4,2.2901436E4,4.515171E4,8.73726E4,1.340899E4,-1.2908875E4],"categories":[],"categories_nodes":[],"categories_segments":[],"categories_sizes":[],"default_left":[0,0,0,0,0,0,0,0,0,0,0,0,0,0,0,0,0,0,0,0,0,0,0,0,0,0,0,0,0,0,0,0,0,0,0,0,0,0,0,0,0,0,0,0,0,0,0,0,0,0,0,0,0,0,0,0,0],"id":28,"left_children":[1,3,5,7,9,11,13,15,17,19,21,23,25,27,-1,29,31,33,35,37,39,41,43,45,47,49,51,53,55,-1,-1,-1,-1,-1,-1,-1,-1,-1,-1,-1,-1,-1,-1,-1,-1,-1,-1,-1,-1,-1,-1,-1,-1,-1,-1,-1,-1],"loss_changes":[6.860102E13,1.8975784E13,2.8361385E13,3.9842574E12,3.2259268E12,3.185985E12,1.4621428E13,7.425973E11,5.078778E11,5.8424715E11,4.2512207E11,5.112626E11,2.737811E11,2.687039E12,0E0,1.9946327E11,1.2668738E11,7.912397E10,6.429488E10,9.718307E10,1.756142E11,1.5852084E11,1.6527078E11,1.1208963E11,1.9248605E11,1.328053E11,2.115156E11,4.4976654E12,2.1201428E11,0E0,0E0,0E0,0E0,0E0,0E0,0E0,0E0,0E0,0E0,0E0,0E0,0E0,0E0,0E0,0E0,0E0,0E0,0E0,0E0,0E0,0E0,0E0,0E0,0E0,0E0,0E0,0E0],"parents":[2147483647,0,0,1,1,2,2,3,3,4,4,5,5,6,6,7,7,8,8,9,9,10,10,11,11,12,12,13,13,15,15,16,16,17,17,18,18,19,19,20,20,21,21,22,22,23,23,24,24,25,25,26,26,27,27,28,28],"right_children":[2,4,6,8,10,12,14,16,18,20,22,24,26,28,-1,30,32,34,36,38,40,42,44,46,48,50,52,54,56,-1,-1,-1,-1,-1,-1,-1,-1,-1,-1,-1,-1,-1,-1,-1,-1,-1,-1,-1,-1,-1,-1,-1,-1,-1,-1,-1,-1],"split_conditions":[1.849E6,8.1E5,4.75E6,5.25E5,1.259E6,2.849E6,2.1E7,3.59E5,6.599E5,9.99999E5,1.499E6,2.3E6,3.6E6,9E0,2.5314331E5,1.75E5,4.45E5,6.66E5,7.299E5,9E5,1.902E3,1.88E6,2.16E3,6E0,7E0,1.945E3,5E0,6E0,1.2E1,-7.1273354E3,-4.3184316E3,-3.3050645E3,-2.5221057E3,-1.4783328E3,-2.9728535E3,-5.9976324E2,8.81432E1,9.035195E2,1.9025043E3,1.3274357E3,3.8021255E3,5.2960176E3,-1.4789038E4,5.3911997E3,8.725583E3,1.1471443E4,3.5065337E3,1.6495836E4,7.974101E3,2.477844E4,1.8884705E4,3.3249715E4,2.2901436E4,4.515171E4,8.73726E4,1.340899E4,-1.2908875E4],"split_indices":[0,0,1,0,0,0,0,0,0,0,0,0,1,3,0,0,0,1,0,0,5,1,4,3,2,5,2,3,7,0,0,0,0,0,0,0,0,0,0,0,0,0,0,0,0,0,0,0,0,0,0,0,0,0,0,0,0],"split_type":[0,0,0,0,0,0,0,0,0,0,0,0,0,0,0,0,0,0,0,0,0,0,0,0,0,0,0,0,0,0,0,0,0,0,0,0,0,0,0,0,0,0,0,0,0,0,0,0,0,0,0,0,0,0,0,0,0],"sum_hessian":[1.7325E4,1.6509E4,8.16E2,1.2446E4,4.063E3,7.47E2,6.9E1,6.471E3,5.975E3,2.982E3,1.081E3,5.43E2,2.04E2,6.8E1,1E0,2.366E3,4.105E3,3.312E3,2.663E3,1.962E3,1.02E3,6.01E2,4.8E2,3.4E2,2.03E2,1.37E2,6.7E1,6.4E1,4E0,1.33E2,2.233E3,2.082E3,2.023E3,3.128E3,1.84E2,1.362E3,1.301E3,1.135E3,8.27E2,1.7E2,8.5E2,6E2,1E0,9.8E1,3.82E2,3.3E2,1E1,1.86E2,1.7E1,4.7E1,9E1,2.7E1,4E1,4.4E1,2E1,2E0,2E0],"tree_param":{"num_deleted":"0","num_feature":"10","num_nodes":"57","size_leaf_vector":"1"}},{"base_weights":[6.733786E2,-1.1275972E4,2.8879028E5,-2.876581E4,5.094036E4,2.2643616E5,8.466958E5,-4.498205E4,-9.638881E3,3.3188055E4,9.7263695E4,1.8484852E5,3.101298E5,7.565072E5,2.4428331E5,-5.842548E4,-3.6934496E4,-1.7839059E4,2.619782E2,2.1621303E4,4.8212047E4,7.699781E4,1.15365875E5,1.5977914E5,2.1036355E5,2.8026688E5,3.6617325E5,-6.624E2,8.038406E5,-5.4038003E3,-3.7998765E3,-3.0035276E3,-2.2555447E3,-1.154184E3,-2.5692966E3,-3.15929E2,3.8692883E2,1.678877E3,-7.8414575E2,3.516337E3,-1.2251182E3,-1.4271421E4,5.4606875E3,8.1676426E3,-3.2580537E3,9.607594E3,1.3483307E4,1.5853696E4,1.0262419E4,2.0500213E4,1.2138365E4,3.1005357E4,2.1337432E4,1.13410625E4,-1.1418342E4,1.04491164E5,4.7514027E4],"categories":[],"categories_nodes":[],"categories_segments":[],"categories_sizes":[],"default_left":[0,0,0,0,0,0,0,0,0,0,0,0,0,0,0,0,0,0,0,0,0,0,0,0,0,0,0,0,0,0,0,0,0,0,0,0,0,0,0,0,0,0,0,0,0,0,0,0,0,0,0,0,0,0,0,0,0],"id":29,"left_children":[1,3,5,7,9,11,13,15,17,19,21,23,25,27,-1,29,31,33,35,37,39,41,43,45,47,49,51,53,55,-1,-1,-1,-1,-1,-1,-1,-1,-1,-1,-1,-1,-1,-1,-1,-1,-1,-1,-1,-1,-1,-1,-1,-1,-1,-1,-1,-1],"loss_changes":[5.9653384E13,1.8105076E13,2.3811802E13,4.0277041E12,2.999158E12,2.1076189E12,1.3807804E13,7.581792E11,4.8389004E11,4.579071E11,3.6200828E11,2.337601E11,2.4046574E11,2.4376204E12,0E0,2.0027487E11,1.2243855E11,8.246447E10,6.794008E10,1.1612881E11,1.5336787E11,1.5234394E11,1.1867731E11,1.3262022E11,1.764334E11,1.3492971E11,1.852278E11,1.5856812E11,4.5009286E12,0E0,0E0,0E0,0E0,0E0,0E0,0E0,0E0,0E0,0E0,0E0,0E0,0E0,0E0,0E0,0E0,0E0,0E0,0E0,0E0,0E0,0E0,0E0,0E0,0E0,0E0,0E0,0E0],"parents":[2147483647,0,0,1,1,2,2,3,3,4,4,5,5,6,6,7,7,8,8,9,9,10,10,11,11,12,12,13,13,15,15,16,16,17,17,18,18,19,19,20,20,21,21,22,22,23,23,24,24,25,25,26,26,27,27,28,28],"right_children":[2,4,6,8,10,12,14,16,18,20,22,24,26,28,-1,30,32,34,36,38,40,42,44,46,48,50,52,54,56,-1,-1,-1,-1,-1,-1,-1,-1,-1,-1,-1,-1,-1,-1,-1,-1,-1,-1,-1,-1,-1,-1,-1,-1,-1,-1,-1,-1],"split_conditions":[1.995E6,8.599E5,4.75E6,5.499E5,1.3E6,2.849E6,2.1E7,3.7E5,6.859E5,1.029E6,1.536E6,2.3E6,3.6E6,2.004E3,2.4428331E5,2.449E5,4.499E5,6.89E5,7.6E5,1.049E6,5E0,1E0,2.1E1,3.868E3,5.471E3,6.385E3,5E0,3E0,2.64E3,-5.4038003E3,-3.7998765E3,-3.0035276E3,-2.2555447E3,-1.154184E3,-2.5692966E3,-3.15929E2,3.8692883E2,1.678877E3,-7.8414575E2,3.516337E3,-1.2251182E3,-1.4271421E4,5.4606875E3,8.1676426E3,-3.2580537E3,9.607594E3,1.3483307E4,1.5853696E4,1.0262419E4,2.0500213E4,1.2138365E4,3.1005357E4,2.1337432E4,1.13410625E4,-1.1418342E4,1.04491164E5,4.7514027E4],"split_indices":[0,0,1,0,0,0,0,0,0,0,0,0,1,4,0,0,0,1,0,1,3,3,2,4,4,4,2,2,4,0,0,0,0,0,0,0,0,0,0,0,0,0,0,0,0,0,0,0,0,0,0,0,0,0,0,0,0],"split_type":[0,0,0,0,0,0,0,0,0,0,0,0,0,0,0,0,0,0,0,0,0,0,0,0,0,0,0,0,0,0,0,0,0,0,0,0,0,0,0,0,0,0,0,0,0,0,0,0,0,0,0,0,0,0,0,0,0],"sum_hessian":[1.7325E4,1.6636E4,6.89E2,1.2986E4,3.65E3,6.21E2,6.8E1,7.027E3,5.959E3,2.64E3,1.01E3,4.17E2,2.04E2,6.7E1,1E0,2.629E3,4.398E3,3.259E3,2.7E3,1.493E3,1.147E3,4.79E2,5.31E2,2.14E2,2.03E2,1.37E2,6.7E1,4E0,6.3E1,4.72E2,2.157E3,1.936E3,2.462E3,3.043E3,2.16E2,1.416E3,1.284E3,1.393E3,1E2,1.113E3,3.4E1,1E0,4.78E2,5.27E2,4E0,1.3E2,8.4E1,1.6E2,4.3E1,1.21E2,1.6E1,2.7E1,4E1,2E0,2E0,8E0,5.5E1],"tree_param":{"num_deleted":"0","num_feature":"10","num_nodes":"57","size_leaf_vector":"1"}},{"base_weights":[6.5576965E2,-1.2029358E4,2.3688861E5,-2.8273906E4,3.854791E4,1.8954567E5,7.840352E5,-4.361661E4,-1.2612838E4,2.193445E4,7.093717E4,1.4788003E5,2.7112072E5,6.977858E5,2.357334E5,-6.2797125E4,-3.9009527E4,-2.1784555E4,-5.0847817E3,1.3733183E4,3.4312875E4,5.765679E4,9.494838E4,1.243522E5,1.7069119E5,2.4266367E5,3.4475247E5,7.5043575E5,1.988925E4,-7.301802E3,-4.2173057E3,-3.1547332E3,-2.3275369E3,-1.4368811E3,-3.0790693E3,-6.8324E2,1.4438749E1,1.1057898E3,-9.7616833E2,3.5843142E3,1.9413337E3,4.2582437E3,3.6132455E2,6.7890356E3,-5.7781494E3,9.022651E3,1.724036E3,1.2185613E4,-5.9973083E2,2.0197277E4,1.5037804E4,1.9672213E4,3.0757988E4,3.9299434E4,7.775127E4,3.9166227E4,-4.9437137E4],"categories":[],"categories_nodes":[],"categories_segments":[],"categories_sizes":[],"default_left":[0,0,0,0,0,0,0,0,0,0,0,0,0,0,0,0,0,0,0,0,0,0,0,0,0,0,0,0,0,0,0,0,0,0,0,0,0,0,0,0,0,0,0,0,0,0,0,0,0,0,0,0,0,0,0,0,0],"id":30,"left_children":[1,3,5,7,9,11,13,15,17,19,21,23,25,27,-1,29,31,33,35,37,39,41,43,45,47,49,51,53,55,-1,-1,-1,-1,-1,-1,-1,-1,-1,-1,-1,-1,-1,-1,-1,-1,-1,-1,-1,-1,-1,-1,-1,-1,-1,-1,-1,-1],"loss_changes":[5.1922703E13,1.3511561E13,2.2724206E13,2.9902546E12,2.149759E12,2.7265912E12,1.3248397E13,5.5310916E11,4.2527667E11,2.6794433E11,4.2660476E11,2.6912752E11,4.9046513E11,2.4477686E12,0E0,1.22438025E11,1.7545612E11,7.6639896E10,8.374634E10,9.116041E10,1.15609305E11,1.4553606E11,1.8198456E11,1.1914209E11,1.6673302E11,1.9467128E11,3.2280936E11,3.7349103E12,2.746211E12,0E0,0E0,0E0,0E0,0E0,0E0,0E0,0E0,0E0,0E0,0E0,0E0,0E0,0E0,0E0,0E0,0E0,0E0,0E0,0E0,0E0,0E0,0E0,0E0,0E0,0E0,0E0,0E0],"parents":[2147483647,0,0,1,1,2,2,3,3,4,4,5,5,6,6,7,7,8,8,9,9,10,10,11,11,12,12,13,13,15,15,16,16,17,17,18,18,19,19,20,20,21,21,22,22,23,23,24,24,25,25,26,26,27,27,28,28],"right_children":[2,4,6,8,